-0.043132695765576164 0.04349926290662133 0.09824287169381199 0.2693490821931767 
-0.2894441583735231 0.09869870037135835 0.22357522449389522 0.04202778322536772 
0.010589999428343232 0.02940600858944435 -0.14638136982768007 -0.017840161947694607 
0.3273589928754861 0.29118801657030396 0.4310764907941521 -0.15399689256319513 
0.23142939333324683 0.29483683642023994 0.030734697346164797 0.09535416132974218 
0.4797266667497296 0.3445359259001373 0.31895860287476985 0.27970307162724817 
-0.14823919026866245 0.16350475869755782 -0.07379120980621318 -0.029441226277066516 
0.09190878567004762 0.24098176913005034 -0.2793459602823533 -0.2507106675767217 
0.36116749313912816 0.16646115265846254 0.04628763018169272 0.2791547475950515 
-0.06751486420007977 0.22755404901699536 0.3982706630248686 0.3245400605480874 
0.1146106277368463 -0.06931505921943637 -0.33328173757955826 0.01833139586782515 
0.21250004354634597 -0.22435495404856326 -0.17055614474216121 0.010144545462577271 
-0.11071822423888256 -0.24933090146991474 -0.1254385345586023 -0.40566147080446 
-0.06948285205712815 0.19247106638248856 -0.6186281737650628 0.2582933503552813 
-0.20767503810541912 0.1032989622417197 -0.009243388102337264 -0.23035844300334207 
-0.37683610398742273 -0.6527178895010145 -0.4189341447031028 0.2368313370409537 
-0.7153650726254259 -0.3034274163439452 -0.4091774083331777 0.13715976173171388 
0.2839755780444531 0.3043640657758373 0.01793325420279679 -0.01330320458307221 
0.10590303180719417 0.08492787454312871 -0.27421151391407417 0.021926513229143817 
-0.03828503637463186 -0.09155959812144412 -0.2203557306722582 0.3166901655821508 
-0.11729060022031576 -0.6788956284734541 -0.09219737502783042 0.34762456507383144 
-0.1384491961247903 -0.21549692216543528 -0.04934417402391927 -0.22928327853672087 
0.2448577482831342 -0.2035030630122137 -0.29189893306689046 0.09993577251512846 
0.10652104171470773 -0.02957221132814734 0.2593482480290016 0.4476301674894449 
-0.0362276587193971 0.05521720083980338 0.5172887717871951 0.4448742226356391 
0.35710503970169594 0.37030663391228 0.41471720316277105 0.4597586021713188 
0.33157425686279846 0.15563230208414028 -0.055089493668759384 0.08522630866241968 
0.4130456457679811 0.7940463244387049 0.24172922421037424 0.19882631597420486 
0.16993474225224955 0.01588712665695774 0.3600508378433137 -0.09434018482677058 
-0.04397052209512657 -0.034339830164906 -0.34741674061561945 -0.40879210294618606 
-0.31091552128684724 -0.14197672001509098 0.022090510801231783 -0.020476189731520645 
-0.10162204956651985 -0.13008446201055432 -0.3303247037232833 -0.3115343461657574 
0.1256414590889991 0.06633648148716972 0.2749338966918435 -0.374573462245678 
0.2549234152863167 -0.4275368499283183 -0.057452116876201095 0.07967592944343709 
0.22879498865166528 -0.3907338099342236 -0.34399016628108814 0.3380902616490469 
0.128418590643259 -0.0908715649033887 -0.17134588878607496 -0.40288295333767515 
-0.14290225751722577 -0.7769539174283985 -0.3922715364876882 -0.058229225691418224 
-0.6653228948470156 -0.36489121930339097 -0.0949129128883217 -0.2521045859896876 
0.0548391467606735 -0.04383432362829751 -0.13430599084940537 -0.029436423239632293 
0.01185152527563739 -0.19464656779091902 0.0473974530267783 -0.06492364290322535 
0.24746356493200328 -0.10555335357937407 -0.37163896371884164 -0.3391512812276416 
0.22925181989744484 -0.5350447294300581 0.36731696162996413 -0.04060859438855047 
0.005583272657575699 -0.2841539211762338 -0.07126212846329862 -0.31209717855799346 
-0.05927004982291662 0.16233281559184137 0.15380314864398384 -0.09324566922745713 
0.10535657537707908 -0.04108926941361857 -0.11695082232216736 0.19304484867297694 
-0.2815554107132379 0.24522247489627455 -0.03815379523269036 0.20173878563430664 
0.003800148780475508 -0.25927407196986957 0.16491124896156872 -0.3714715595040441 
-0.04339055705906073 0.19944361514785663 -0.35381265607908335 -0.17234396371533192 
-0.004163797028782775 0.08024748595916291 -0.050379586480603596 -0.11293765009415682 
-0.23663447714522104 0.1487732606834718 -0.15112415831440873 0.14419450526520658 
0.056974001458511614 -0.028230240046359455 -0.025726400525976776 -0.13443290661784943 
0.004495508189768082 -0.25195067755239614 -0.04516841529931487 -0.4292876171246721 
0.30293319380090744 -0.16263397368115456 -0.630826941742767 -0.3712102445343715 
0.06330869170465446 0.2573930492247123 -0.06767091862560864 -0.2428427779522868 
0.7608613837089071 0.05351401047622684 -0.21396106685815441 0.11692459241193927 
0.11330986117858745 -0.006542186367738626 0.468514533534171 0.7393563084926883 
0.6983319738558393 0.7298770334521465 0.3530806294162854 0.06118321927701243 
0.5899454076162547 -0.072028026148434 -0.5985854200086753 -0.41194014242882115 
-1.0296187687193767 0.15913785668407268 -0.006937493023219585 0.32013947923457836 
0.3329505606538902 -0.01990827736838723 0.20342956410598734 -0.08771038585765693 
0.47313476279623873 -0.2971855313576412 0.2892658882731743 -0.08929725590598048 
0.23306770228898388 0.04330008958557559 -0.6789527098959592 -0.16547494454731396 
0.2669263732792517 0.016061700110594174 0.1280643813614278 -0.2831480763202225 
-0.12585245583890894 -0.29662329227618045 -0.1334807081714577 -0.5411173410201986 
-0.019993598996609983 0.2627245663803683 -0.3971829266149868 -0.3917435978270688 
0.25952517138846215 -0.35759552201428896 0.034676636456560696 0.34619108419755684 
-0.09880662898234731 -0.3132027846969105 -0.03746067080597827 0.04578501400497047 
0.501954810711271 0.19556326910746946 0.12827599788116495 0.28837511216329653 
0.5459977735986846 0.6637865661041449 0.19146529632531403 -0.20234272023733965 
0.5633985401153637 0.4967953514948377 0.2594131856318917 0.5194550521495539 
-0.16542297199071612 -0.25771766655560197 0.4143944273926312 -0.12911645373242947 
-0.6740510923333738 -0.23955240230211391 -0.36987063787180685 -1.0602208600220773 
-0.3278959503703789 -0.20883387238529166 -0.2645931649026144 -0.8596165294174649 
0.377795820894293 0.2559748874658635 -0.3598641864974089 0.16147905343277968 
-0.006414560513163618 0.3545897579710797 -0.26366541270479055 -0.23343536145476637 
0.4590431486426431 0.17357186951967135 0.11722561524028254 0.10569655390796352 
0.23768727550763433 0.059156125100016145 0.46100782613321106 0.3621121147588136 
0.03866475328625584 0.29153037143339977 0.2004223824697585 -0.1593865916591612 
0.16234060522362145 0.07914912737712923 0.28214667324088705 0.33138552297716595 
0.11044604333195035 0.21933558461953837 -0.19840025835592598 0.12286831232470305 
0.20363623268095962 -0.24870627581481347 0.02978753902196554 0.14370923379944628 
-0.33890765260569206 0.16047215165182516 0.3581773633474216 0.11715354435224065 
0.22723284558084705 0.11259838089151597 -0.04294288799982436 0.10653206882249948 
0.10786802540500469 0.38056146961199216 0.1213876026849442 -0.1218881394472228 
-0.3025164655124287 0.10711098457640358 0.1561609527466449 0.16068613896617576 
-0.1876615086475659 0.18134173884042185 -0.2166639445398013 0.023133773842943486 
0.15670045918923053 0.29369178244565886 0.28128112952025297 0.2175992509442871 
-0.16649165313354594 0.23593280897796173 0.4389258029651155 0.01348880601879792 
0.31305555804262647 0.14976531906519597 0.43318122808681037 0.31301570891124536 
0.056895075822891945 0.15023022249754162 0.09003443283184975 0.2201569586637259 
0.14570768752829424 0.19831413332491096 0.30357887649438114 0.3531496463495412 
0.04700306156807038 0.11019044504779121 0.40770146424294534 0.11543450787240314 
0.21653037537321373 -0.03251705466812942 -0.12417003861861821 -0.39441855431234746 
0.08667948199353522 0.04005514168723137 -0.14249702725865346 -0.04170179650514064 
-0.15471735153673968 -0.24646199469899663 0.3953496582920296 0.2607842627703278 
-0.2446568536644489 -0.4320858567196535 0.1314303814157249 0.2829086887773957 
-0.44420965502854964 -0.36553297623481595 -0.24339410009063905 -0.2569614587269227 
0.02884911586559004 0.10882878661944588 -0.20287419917289892 -0.2113704844489039 
0.23853863478775406 -0.06150021033901941 0.05312776068859565 0.31230961251020556 
-0.16638851513920433 0.4391914489274093 0.8127460796608456 0.7817588442292649 
1.0084461571275338 0.021511793577941776 0.3609008774472512 0.282037195485542 
0.12496301153216717 0.1565897699070619 0.09740339829458983 0.057490580508675844 
0.01304624748235155 -0.1927833794758105 -0.36768575437525763 -0.5287927765738692 
0.0031041449238271564 -0.600258557217436 0.22750040276357938 -0.1822303811125726 
-0.3406146865147265 -0.012579287127930331 0.09841573753280541 -0.10266915441439735 
0.5024981388305375 0.4257274574571831 0.2864758079384242 0.17543786823687202 
-0.2741093496599612 -0.2682444270965963 0.20722085908376936 0.19990792649989014 
-0.0960693779762861 -0.12021344128442106 0.03495330000621689 -0.1188651522172903 
-0.10165441284799827 0.10367150498033699 -0.4716374286452073 -0.33430560901573875 
-0.2168397232787742 -0.2166424923380313 -0.41193408692025624 -0.3715332909906608 
-0.6421817144355499 -0.412495784520486 0.1854408035648671 -0.10262680917378308 
-0.45500928964616316 -0.7829067211222989 -0.2291383057107294 -0.4570996271451449 
0.4578129925299882 0.06704964420309446 -0.5639113578351351 0.23369389589095485 
0.1971122038159104 0.4536939126705099 0.19517941170161293 0.7683450368539713 
0.30883772790791475 0.09370346236207752 0.0673695641965486 0.5057601630926983 
0.013866655244924598 -0.22243202067262802 0.3360170963193667 0.5697779197621669 
0.7205763194732671 0.6040730853997216 0.5006410747317933 0.23169876130843142 
-0.11781240644343142 0.13210036328927324 0.40052555170317317 0.08794552719154816 
0.44451027079986694 -0.024988703866876925 -0.45999151653856873 -0.3866707015496257 
-0.45588284269912555 -0.8165225589125005 0.48241373699573376 -0.07148318243016982 
-0.3288375517545258 -0.031699614087305185 -0.7933022862059788 -0.7493215991563968 
-0.4727188413976581 -0.09588112718932927 0.18435184147038386 0.234514638936388 
0.06566774529210856 0.2739927039730982 -0.014323391466247845 0.028296358183735562 
0.30003647300222586 0.5971015071561765 0.31141600970948774 0.7945431113728059 
0.22383897625559288 0.14676462797921214 0.4924593627453865 0.26583478612497835 
0.2965506095450601 0.6568550822547077 0.3466979410945971 0.19512023944196735 
0.036373460772118324 -0.19799952309989902 0.3754268973659133 -0.028158330599476367 
0.15015674945473637 0.030855693656495486 0.5168682503899789 0.16202416433410255 
-0.04260211034844285 -0.2890790834469941 0.2617729242650053 -0.16699608254233503 
-0.17576219856330336 0.21798376970815161 -0.06519047521552884 -0.2419935794137664 
0.14788087000284827 -0.24364576425347756 -0.055383307687577515 -0.6321425758459555 
-0.38691348636772377 -0.47482881847168495 -0.9105778032550398 -0.14640339170244984 
0.10493204596951833 0.06547476541706498 -0.07971294811115656 -0.15465482304435046 
0.06614088474293597 0.09411155742257293 0.280912813211672 0.39678432952114473 
-0.13549731864795309 0.13766608821034873 0.28790706152653067 0.329790964130131 
-0.07805881056025345 -0.28598513910187057 0.0387028866728359 -0.09500975934761392 
0.0821711334527739 -0.09999007696087675 -0.5178786806673306 -0.23441643732733577 
0.25305283681580026 -0.1344119144733875 0.15307066122120686 -0.03230760330403566 
0.1731927699468371 -0.4375722381818242 0.14394190677314023 0.014607926835083149 
0.4636275967340885 0.07695637581708191 0.3016548006274997 0.45263445339373426 
0.3816203881108173 0.47846890233689215 0.4965591715948898 0.4950851123638355 
0.45529371634861876 0.16633042751298543 -0.060459509116524396 -0.219554506817633 
-0.7809260425483546 0.23028227404979482 0.7682841279973806 1.0670803346939797 
0.43242565366222785 0.5421833247945542 -0.24226312404818381 -0.26177345574031596 
0.5479508338634874 0.05734881709147334 -0.03222879642149499 -0.07880323389906888 
-0.06250352908127059 -0.5693791600877315 -0.2934043575806547 -0.14325824401534681 
0.06974148594766 -0.033769332346725106 0.12422885453320111 0.043412555329642055 
0.2880424053282972 -0.005442745265385478 0.6515790791016084 0.0556261032882939 
0.015871084078331255 0.2867791797508551 -0.2725767701016874 -0.2762740358451493 
0.6349176440447637 -0.029993070065421387 0.20378925205949847 0.05038512443764838 
-0.3171084832874235 -0.24829846411406487 -0.4362497242530047 -0.4326086667335229 
0.5805925107396289 0.13436040641931765 -0.31647872268842314 -0.07204353379661843 
-0.4982861244110082 -0.4840943086274315 -0.2943127137340807 -0.11846757027915704 
0.07634947436776432 0.5923449356906934 0.1416607630219833 0.46353198365457404 
-0.4408431631496704 -0.2760158095064892 0.6248564695351457 0.3089230698183344 
0.23462465432337842 0.4093185582872892 0.1356245566115661 -0.4317712701857467 
0.34007873599796523 -0.16637913685078465 -0.19069228434965768 -0.1520928203450555 
0.3549346924929352 0.2951684286173868 -0.1321010490820086 0.0926603062429045 
-0.00219622627843689 -0.2386214159679578 0.32216105313722254 0.05852974812592351 
-0.1772504836121629 -0.00230383295573751 -0.3377369347545472 -0.2407416665651166 
0.11274716311068117 0.04300619089867751 0.1706382098545735 -0.029221093581031456 
0.3977608122039684 0.36773685911102694 0.011718900278860252 0.323083934809329 
0.4501599460796127 0.14970797053261234 0.40551441968386115 0.316807997742852 
0.17904161908292382 0.4141899415517787 0.316779664291915 0.7105542702125721 
0.3597550368467168 0.03218346203311665 -0.06275304039452917 -0.21112625499746995 
0.1589687147358032 -0.15863577845780155 -0.5139565568566705 -0.2742462400975551 
0.06268531794070561 -0.5937960426343237 -0.4969786698219763 -0.18272319052925823 
-0.03866276675204101 -0.5505340781337161 -0.03322244363495402 0.12339962116526056 
-0.08298646457034489 -0.022060517960976588 -0.04310975694964421 0.3628146211585975 
0.20846243596059727 0.3438282807744999 -0.10759267175143099 -0.2656971702393563 
0.0747546638327827 0.01729966047260919 0.21940341771677732 0.15713387684411492 
0.042732666493994514 0.08229931456145205 0.12651043644963433 -0.06024132544916279 
-0.12020345210630959 0.21161997448331055 -0.016630574983472157 -0.06480901589615029 
-0.23276626865851785 0.13393109368077655 -0.1468745175449019 0.075712941945599 
0.23723324541545804 0.3462526211769409 0.05404456889355432 0.033895399691148284 
-0.004738160816109105 -0.01084769245819858 0.47139400480922955 -0.0902054416130278 
-0.37003571757128517 -0.20368076717296169 0.20173655797947163 0.0058627519262407 
-0.34361886980004075 -0.2641211563816452 0.22476181269820705 -0.011749134278738083 
0.29640179753994184 0.04237232242035038 -0.20098757460113387 0.15949101399156557 
0.0925378114714505 0.08517095161404654 -0.13087971086448247 0.01435579048240607 
0.10296657255249018 0.2615893857078564 0.19927770928596344 0.0184141915687664 
0.014309858077567985 0.16512137485603331 0.3448320234950635 -0.13575275788651914 
0.11874625620871905 0.004297690758476397 0.1333499497452363 -0.07009953845947894 
0.026135182550107956 0.27127682374593953 0.2239895580565988 -0.08035055463211509 
0.32177525747459235 0.19563945655735662 -0.07213289604772428 -0.1444392484784029 
-0.26137289424730187 -0.2346319409293817 0.1804276678030807 0.19460653834518174 
-0.12921926030579636 -0.18382622563163373 0.48987587062869026 0.35886239365925954 
-0.03415683093584443 0.2923449914909012 0.29908200245347394 0.2288956879824391 
0.29476784473722656 0.5569743053225805 -0.011475036873616638 -0.0881583431901209 
0.1562960065515009 0.02904628153711947 -0.5438454134286079 -0.3666254541501327 
0.04166226485571663 -0.03376624521000362 -0.5340707107197739 -0.2398450831659432 
-0.3231272077950845 -0.04110948258940504 -0.3026373624346665 0.2838721567458901 
-0.07011382095255476 -0.06406374593926815 0.024459074913076865 -0.08789840461553064 
0.0749576624200449 0.26923292384106434 0.09503727068624737 0.3078253708063907 
0.7182619990731204 0.6282212059154286 1.0087146980654953 -0.10300133391848897 
0.38692436057083296 0.40887896850960115 0.30202407476612897 0.24158272477938086 
-0.10487174202167474 -0.0013508741413722158 -0.2716717621012182 -0.29131639706747 
-0.3372819437877746 -0.4078664460241339 -0.16677343968400546 -0.5161902233327664 
0.20333895854634138 0.1930100672943212 -0.32351976275891037 -0.05721053222678912 
-0.014373949387077383 0.299750062397683 0.33073023766589604 0.26247343837714143 
0.3469915921891702 0.24158999357764108 0.03181324017029866 0.2784215669114781 
-0.2798575184416749 -0.12651186400439107 0.2667375914422379 -0.12217543579937545 
-0.004212799953094842 0.3043182427109668 -0.29208927708398824 -0.3561142414286197 
-0.1559269124809137 -0.16898817014280065 0.06934241191628629 0.1976382476545893 
-0.17095177460766128 0.3558660904924428 -0.18820348193287706 -0.1759608521495195 
-0.113682141876181 0.42740304072885665 0.18573611834291667 0.5644877212649959 
-0.251395534131296 0.2441031521361837 -0.285888864447985 0.3509528229386489 
0.47128788192887555 0.33477808873329135 0.2820159502894838 0.20762254818413733 
0.17273172661725808 0.18595757858232267 -0.09214002526867578 0.17758425289872964 
-0.1536845638009377 0.1435538423913284 0.0669240546918961 -0.03243296092799275 
0.03248986719967047 0.07857517095333252 -0.21698332299395182 -0.2640317246936718 
-0.36808518776276183 0.5945039442868183 -0.7698457810512616 -0.15154515869072635 
0.3611583143029529 -0.18922052919448717 -0.3066779571394557 0.2384172250513735 
-0.18466687753472058 -0.585699617901883 0.12233270981067773 -0.18112599228445803 
-0.22072768280606714 0.6705590853673843 -0.15002306540151134 0.3222068875811143 
1.2127497028682956 0.6723343893595843 0.4337030938071991 0.39675067134996994 
-0.16548589632415753 -0.28068109986552764 0.5769532209765931 -0.12124043846273111 
-0.11772098869846626 0.7048318476439986 -0.44852293952470645 -0.3448738743268532 
0.35691000222614416 0.09012562779108213 -0.36387832622971245 0.15684899667640334 
0.14359184361817112 0.1829734930436028 0.1466436282794619 0.09321653084196845 
-0.02368686567248662 0.462479651265343 -0.01957277305824334 -0.051352079624041404 
-0.23850840031813964 0.09536558551893337 -0.02410736128391686 -0.10833953865119968 
-0.3522436144291647 -0.08712882358524005 0.06291850365365441 -0.041849188186120566 
0.021433740073391022 0.2853477200622364 -0.34070649644487727 0.009069965581825117 
-0.0414877425216644 -0.10175638878491783 0.1885655762238004 0.3587925221004804 
0.27093140296969787 0.2309163034145997 0.40714397575299754 0.535115587916774 
0.6832564855087677 -0.004894512011672952 0.4755474220339725 0.231870703941269 
0.26949657117612874 0.4085010513457494 0.13130378619646252 0.006554055481808973 
-0.002544893912068483 0.008089401331941498 -0.13134830087200028 0.03879227935750897 
-0.27878380949843523 -0.5725283899202734 0.33030354199431455 0.2661114791076907 
-0.166639559752531 -0.11028595791902365 -0.1866438025521827 0.018716831219954485 
0.1853451866558425 0.31068071773841743 0.3527816548690395 0.3345577897312153 
0.04651794782063805 -0.04076780137246501 -0.3619391528136235 0.18847280282778367 
0.11982058344187868 0.08857800609856256 0.0664186939074465 -0.059097237004533995 
-0.367365184257127 0.14844905341188858 -0.17455008757659568 0.04867725106039097 
0.09135939823219712 0.410000876033454 0.1229396151371595 0.0781879895876683 
0.07765951712387624 -0.11741613804889107 -0.013857412073119652 -0.03584171525330448 
0.2519383274452015 0.3193236753222787 -0.2644046182977659 0.32678441190157503 
-0.3055436605857507 0.1905164970242646 0.056462471926703194 0.31052541228962605 
-0.005371451561256756 0.19289994907758898 -0.03710673578955548 -8.401717346792366E-4 
0.20719354244229563 0.10249104356917604 -0.14577475506845164 0.23076359799867666 
0.06832827365138887 0.35631765484754024 -0.35537912278045886 -0.22957770020447635 
0.22158514411616964 0.013226446878122274 -0.29398564094871904 0.18830787962594595 
-0.25101739253551947 -0.33958200097380914 0.2861242671253221 -0.2740927486450788 
-0.2205159033488036 0.09823726763726724 -0.47878652592379023 0.16585028796318899 
0.09703905651575268 0.18461066305861926 -0.05612692552746298 0.0166974059220095 
-0.38169765290497265 -0.5709294036127038 -0.6870844829985009 -0.19750191738990575 
-0.840397344841544 -0.19923143361458512 -0.24277672996870744 -0.10023667447100715 
0.3006629249249954 0.7289351789579548 -0.3744065181757329 -0.36466165624907726 
0.2034525417043173 0.18767251379208816 -0.26656146981872 0.07355394169715322 
0.10392298193711892 -0.19399338891841994 -0.43908732135637785 -0.08783766216067784 
0.011167070950348452 -0.5359606760104826 -0.022245602904917793 0.26000954960401546 
0.10739642520682828 -0.4231962066670845 -0.039445744490701345 0.05311809339085325 
0.04749741185122391 -0.1769590983894092 0.21932375706398488 -0.006683336067126515 
0.25158674191887603 -0.23517204456323929 0.09578297891275198 -0.3775956282551949 
-0.2787242751210993 0.014147731259408682 -0.2399376230605107 0.196982588110926 
-0.16784405642900513 -0.46738248390047443 -0.33581038924916373 -0.8938636294803094 
-0.1882412083046693 0.0349841402202593 -0.3399925110214347 -0.13354230420400906 
-0.30298074996051216 -0.32861986462997583 0.38072399971075266 0.36842778068621934 
-0.015608011186349307 -0.04191232087223016 0.11528042657929041 -0.03936340876684035 
-0.22383588722300224 -0.11288502189724908 0.19886538213947386 -0.35803430159522126 
-0.03236740571107664 -0.25722864361088993 0.052100821722161364 -0.7335059465019589 
0.5234649749074286 -0.028108572359524006 0.3353988463380458 0.08052001059991303 
-0.028620416291245485 -0.28864511696732076 0.0690587208739867 -0.066961203441729 
-0.10644570380852099 0.018978390810563715 -0.35405799472610194 0.03552881662500093 
0.019686981943891204 -0.11581997720678039 0.1322574137718694 0.4588991886698182 
-0.19006499789931208 -0.03156029363653133 -0.45102697276545806 -0.38256982361383235 
-0.37590237467970666 -0.5433962754771693 0.43147611340633124 0.4364725392742197 
0.06452061429185418 -0.16860571531154614 -0.4264403329170406 -0.2960606056273359 
0.27988733306435126 0.04787550165013029 0.4346143974800138 -0.028058017144320064 
-0.4718932969044786 -0.21587541897338447 -0.3277808201615953 -0.3552905052309455 
0.09807046574125948 0.16187211331416665 -0.07853539424099357 0.270042676933195 
-0.009680677668239723 -0.37716687229805707 0.21858138720725262 -0.12160391635336687 
0.13374373907951911 0.258578078885514 -0.15439058386140003 -0.2696083817536196 
-0.12058106572631026 -4.5340539286319997E-4 -0.3549012365618802 -0.05673417965885125 
-0.10445949322828299 -0.37907916635945627 -0.3015776670551003 -0.10516009620885508 
-0.4803507997340274 0.3888304765175249 -0.14493648264685985 0.19509168828812692 
-0.08246229221201273 -0.3240239755644868 -0.27253780701178787 -0.5948954438016228 
0.3285582598441489 0.5144410396763865 0.2656109193723611 -0.4620032297632211 
-0.6384460672304986 -0.22102125254064695 -0.026095233887297953 0.20306828591905918 
-0.010523877565156695 0.029283699478762602 -0.27186038341398244 -0.22413722707548825 
0.06946608996025325 -0.17739690347601092 -0.07422765094434122 -0.21123871246601128 
0.07079921618304867 0.2706786357852529 0.10314503502309937 -0.5020438550801757 
0.26151949117342976 -0.01783057319510416 -0.07132108596415059 0.24071546261651353 
-0.4256167178618269 -0.2841386311391444 -0.04621591907766114 0.0381257727993094 
0.039495075893251345 -0.24664603514193653 -0.5618114353315876 -0.14080797760783295 
0.07619021639815007 0.26466262862745293 0.0050839749076216885 0.29173653730881005 
-0.09259922145537922 0.024181218086592463 -0.4098621488872556 -0.2711080074749129 
-0.25348772868238756 0.14695552631970177 0.526599009741259 0.4396177740275916 
0.3854285500842575 0.1991737217081351 -0.37812149044248855 -0.28189120183130706 
-0.10476756025173332 0.12603007128298652 0.298515009862464 -0.10401341542988804 
-0.07948102555921915 -0.009810580704725682 -0.5858267020207905 -0.4746641606716909 
-0.29760182253093237 0.06347991180285122 -0.13837470310431815 0.14015570983715528 
-0.11453520634141322 -0.0030437853325363134 0.10322432814297855 -0.1104236587622625 
0.0709302558198448 0.19252473101672832 -0.08711627169222537 0.36646960719387917 
-0.07700197946770002 0.2825541132461144 0.12821816639366707 -0.18332627545676533 
-0.11844849347287871 0.2067435840569546 0.15696042110726582 0.3750853543232347 
0.4088022559075535 0.5566409687535141 0.24064308536093654 0.42346178232100884 
-0.003893485752931332 -0.02603310938449662 0.3798606083593612 0.07231283718189356 
-0.43893566669859213 -0.25194080811720493 0.06103954940892744 0.23370233376797894 
0.019401734882620907 0.37303167616365124 0.23638064737433215 0.14291596622289116 
0.022173588331891536 -0.07127289054973202 -0.012300818338974246 -0.16872317392260663 
0.13534553909077662 0.09273519912270124 -0.026852346309241507 0.36036115349840353 
-0.1701522340312747 0.0353033734732341 -0.06289963286164688 0.3635283623066616 
0.29577666298881145 0.2336574612614704 -0.03376733538428424 -0.33618249410618756 
-0.1575920593554529 0.09087544529541497 0.05124321754809092 0.12079000394054898 
0.033274296423292854 -0.18496780937269275 0.14405854164709295 -0.020575920344649522 
0.0074769086476897196 -0.189630054827458 -0.3976487843220135 -0.028899443161124985 
-0.2400023809046789 0.14796253427393966 0.44998398340196094 0.04355153500073404 
0.0027957449210210253 -0.18560546216947327 -0.5917816342650931 -0.09177457724394474 
-0.5878711366008355 0.11422605007465818 0.43792642321351943 0.46581765934905567 
0.04682293211678687 0.11224468516571455 -0.3111838381642212 -0.1535101658945505 
0.412031093787026 0.01068972714372929 -0.25182376166030157 -0.24014763019518628 
-0.2154545392899278 -0.2546013362085042 -0.03758807200181279 0.018366976065525436 
-0.23647274468332521 -0.29841427903129264 0.35579268771979417 -0.008751822119602577 
-0.1658984756856787 -0.2274760613148535 -0.13511624828738178 0.02902933516881037 
-0.17158396905944798 0.18526699281478612 0.08924592756136689 0.06887079509756039 
0.19982501275644962 -0.3283486916296541 -0.25746627206883577 -0.08474197433210619 
-0.24515253652731736 0.5349180383655852 0.15121361647783127 0.30416891457675643 
-0.34562865810207655 0.09441487528504175 -0.14371266891627563 -0.48968640975254607 
-0.7116459363922107 -0.18812260936564484 -1.0315536966855 -0.1982658890645803 
-0.12246954648333472 0.050915996547149275 -0.17765187809535218 0.33227121108684515 
-0.06458474080930636 -0.23699840983314774 0.11108576722248235 0.4268940711036537 
-0.20714491657254205 -0.33098546863065625 0.0019977012901075887 -0.13105965871722394 
-0.03757265626431199 -0.1413552542642615 -0.26523151929221683 -0.4890496294838543 
-0.13546316200885056 0.12594774499750372 0.0984811751815121 -0.28342408140805014 
-0.18754649156994196 -0.029899921723056964 0.43188216029411053 -0.010563896003583052 
0.06912714672055884 -0.4229639320892348 0.12048597129645716 -0.26411409958699894 
0.30014955857360537 -0.20886489115152168 -0.44839422765487835 0.36475799181696267 
-0.16773560734683793 0.3895697514642911 -0.24396516544754288 -0.0227263731655014 
-0.45804867226690904 -0.7084435132643865 -0.4947183023585153 -0.2032950974012901 
-0.5383416882741463 -0.10247313115831956 -0.08869379199765852 -0.05881570315646992 
0.41275579649960514 0.5966619594272774 -0.15242157008244625 -0.4149112364919251 
0.2649661003638115 0.02412449796336148 -0.33135288325836254 -0.1622490168109609 
0.1677538050992887 -0.580788987464912 0.13813606774771836 -0.16810118836198237 
-0.055630248878184636 -0.6204522195124138 0.3572050533401604 -0.03012162889184411 
0.44947779608529087 0.17999856387527946 0.6462385476571623 0.10792804474906684 
0.2886205652868295 0.08003340489964703 -0.002830393742867782 0.039492248170734226 
0.3122745239401203 0.24159722049931362 0.15693931804357955 0.023215849459730667 
-0.2626112640442071 -0.15308341049656807 -0.28916388075912225 -0.15550509893150577 
0.19164855964147834 0.35413373825922606 -0.1954298606492104 0.2234228722433041 
-0.26587369309558406 -0.2335684653151284 0.03941845015055779 0.24034238546084954 
0.15470290227475245 0.2679648654358526 0.11797653689419538 0.09115591252204512 
-0.12874688097221257 0.08446607927644101 0.1654016613755973 0.26221314333140444 
0.12126456667868137 0.5316152022902497 0.09711700945960222 -0.2127026993348269 
0.4292814597249721 0.008325825878530521 0.3800756977611602 0.5419331264940689 
0.22694782729010127 0.01904711611177178 -0.11203898899732206 -0.13341136860391564 
-0.046150340177408 -0.2898716369231976 -0.05501007992465758 -0.04259459655988577 
-0.699293435055257 -0.19096985147790596 0.15085532789422249 -0.39990096734342706 
-0.01745826183607525 -0.016693762939151556 -0.0818360554701719 -0.44330311433908376 
-0.019503467128887925 -0.04260018384697405 0.2405815113738621 0.4518244305838583 
0.10540877501371887 0.4205418376037261 0.6521573649966556 0.8106879308356926 
0.7209340202948651 0.12230285089688116 0.47898458065218275 0.5949689669176399 
0.31159917689082367 0.37570385399946943 -0.007746195003795955 0.1010544134390759 
0.22004539459006417 -0.4098365823004614 -0.5319960992864182 -0.1899093747605688 
-0.5701051830391849 -0.8525531387744211 -0.08610213932672582 -0.11661085619592089 
-0.4299322213942475 -0.5149622962563261 -0.1082095675166618 0.19058517250013357 
-0.25312439763358574 0.2425816425947732 0.21694835164356308 0.2568268743489766 
0.16307803563643888 -0.01598920002179859 0.0324386693560209 -0.05345305012036644 
0.3899162714670265 0.10459844756458107 0.23017393318678572 0.1257752431443588 
-0.11416573507700012 -0.058624306985006015 -0.07508918966772332 0.14632910513311914 
0.32641236415372105 -0.018512732636601165 -0.03678901585562079 -0.07892638749006028 
-0.3426149923864565 -0.2961012296518941 -0.09517085162319372 0.3209608606155017 
0.17772431981120443 0.33094461826192 4.580480150563101E-4 0.31323263351300557 
-0.022062486075438828 0.09683153991126474 0.200040748463268 0.24999482345458024 
0.09947818937870326 0.18264442325210345 0.15764761595518328 0.12233461444321499 
0.17487604268320617 0.17265124993593223 0.18417512358476315 0.04483024841701477 
0.0031476429775933856 0.06823966305073506 0.35656779406245287 0.45785847177727784 
0.022245552903557134 0.22346242197264035 -0.3164158760254766 -0.1415298101926415 
0.10050726885539715 0.01633613903528054 0.17415756460520593 0.1111457701663345 
-0.06149486463996738 -0.4343378637225122 -0.2771910618908434 0.06819965150653313 
-0.35817362791973445 -0.28479518971885753 -0.30963669125591664 -0.021153225521472592 
-0.5725839197534144 -0.21407264867910428 -0.41722118682546655 -0.4076634679152471 
0.14315413009435377 -0.30982676070451926 -0.5720715170068277 -0.5056716087249583 
-0.19085483262365022 -0.33101563159037845 0.27662242784196783 0.1848821900470627 
-0.5911885480595673 0.10529944553480085 0.48995180480134204 0.01301211199384141 
-0.05287374639427502 0.6590377363621819 0.13310843102029626 0.060351345464055635 
-0.074818077539961 0.6184785929177332 -0.09392300233869325 0.005376346170599809 
-0.0914609381345967 0.11452257966764123 0.9564760267626117 0.4117513038598927 
0.14625332559898718 0.5219694909929897 0.4236058641254891 0.40578991650261775 
0.582592334000846 -0.09386008025120543 0.4605190197187732 -0.052864525211596 
-0.2198647451181223 0.019316322968684414 -0.6414496300802283 -0.40756345652100195 
0.12538649358353435 -0.08304598178034936 -0.2556767723208087 -0.6059557460445215 
-0.9340687736820088 -0.7671832299047896 -0.4749822975985119 0.07190508778613905 
0.15912923697837997 0.21279971198441897 0.005511470374722642 0.440066631497029 
-0.03840230417024803 -0.08857899949331334 0.4724183896532416 0.8458759044267021 
0.12895049370026648 0.5206714867677333 0.3062008978538701 0.12300378610748144 
0.2832733066724684 -0.011992690221909262 0.21162267376466873 0.4273881524936369 
0.3397380557094403 0.32248971090780254 0.3006759906949576 -0.09353195657146339 
0.4008863035116693 0.0710909063234113 0.3100450777463189 0.27388457519143256 
-0.05441841532364199 -0.14904829449924847 0.15605330107048346 0.07372005101386951 
0.3907491408682992 0.34407308616041915 0.296077308317506 -0.3127100980246367 
0.078385149292781 -0.2407413556203479 0.3821360861658286 0.22381096989583651 
0.07172456693625659 0.3130087745972725 0.4465057978559573 0.3491287934832062 
0.34892561498133856 0.33216190833373194 0.14259482762062986 -0.1800730097736151 
0.32021435377531693 -0.18778433708125186 0.4479972302450086 0.2925808360297949 
-0.15816301228509194 -0.27038800076449787 0.5345691952886575 0.06808120198866209 
0.16345445730500388 0.031779555859415415 0.26786425909338435 -0.1424353806630355 
0.33109165776371835 0.3998932683045184 0.031141653654751345 0.07522208665059651 
0.5616999693050576 0.11452085729487989 -0.15348876154486718 0.07846901998648557 
-0.02801250556959808 0.2940189475397141 -0.19538049728107704 -0.08594719434764436 
-0.1399725388561797 -0.12371882781398963 -0.3625578727560945 -0.1848562961735261 
-0.1811425096318941 -0.3460560653798326 -0.5732985494979533 -0.5731184679324015 
-0.4399032299336373 -0.1862335301872877 -0.734881674420418 -0.29383190268101517 
-0.012471075744241627 -0.11047420648794201 0.48959576849414627 -0.23026540702350476 
-0.6483530231657014 -0.4489727296328604 -0.29969020492572895 -0.0650916038314639 
0.40192186496943483 0.18116181625239863 -0.513968244828633 -0.15228360260164134 
0.19058887660762694 0.15869956446021116 0.09868195470362065 0.16629752582525964 
0.3558701619155472 0.361532372775372 0.015106098762349718 -0.029779773385308572 
-0.12100099008911468 -0.14146429913959996 0.22139245055125825 -0.17019248688666794 
-0.14965955671495587 -0.10955557740138655 0.04457003942833806 0.04814470289306283 
0.36244511382992284 -0.16214187420166237 -0.4311505055662361 -0.22532438544645358 
0.25280111168439184 -0.0988340645933739 -0.03296954393750067 0.2314988659090495 
-0.2881145817137632 0.03106010017515641 -0.2885515462773284 -0.3529429095142042 
-0.3760404707411304 -0.2939586995742608 -0.19966241188760717 0.20195115055837284 
-0.21929767814028805 -0.2856990964733223 -0.37228159084967327 -0.39630654434280527 
-0.13655845881579057 0.03446889013930764 0.011029157100734873 0.11927663343533013 
-0.37097577800307746 -0.2156788142564142 -0.3528250455441708 -0.3912057468558778 
0.4744142543488521 0.46740144012083923 0.4095515695743151 -0.10111670697262666 
0.24535422339337368 -0.17247665973419693 0.13364581934237676 0.0955113937544517 
0.17379545030713212 0.08412377518832073 -0.3421901853525396 0.07049427139427268 
0.1802289267235649 -0.009600727571701427 -0.2700222205852412 -0.15222870925557452 
-0.2568260237092743 0.04449973747209637 -0.07076799188673497 -0.11817835553580605 
-0.06634782340475646 0.08061187670346945 -0.22928639951794844 -0.06399553653723965 
0.2858738376194871 -0.06307970779275487 -0.037780415033527213 0.6903206568067964 
0.5440504439833471 0.5797093474105658 0.8952105922685052 0.19537711044407768 
0.3005727889437859 0.4222270373277241 0.23269239710819303 0.30960065240547774 
0.024393218159232198 -0.0378418985809214 0.011997039506339912 -0.15748008256292656 
0.02633188878179885 -0.2719995425047148 -0.18148625492889348 -0.17713821103546906 
0.33790221624239314 0.3308782100292436 -0.2384031828373646 0.07096397358177312 
-0.12301663843552609 0.14149248264806807 -0.026451433549127764 0.24437361104336236 
0.31974054761198406 0.06314220864320572 0.12103052674366582 0.25840259849018005 
0.17435020530348455 -0.0034549689477433774 -0.07009381855731944 0.05987394014163996 
0.01972866460639618 0.26052739089536103 0.3394423807025287 -0.13915180569394606 
-0.10886587909349729 -0.19992785573892363 0.3316477917835736 0.12073519379198581 
0.10361790468729017 0.3883010497846636 0.29460665901280453 -0.023510601934822347 
0.15153404471054635 0.14902386951142296 0.17788026155492204 -0.04215070298848152 
-0.278472890772202 -0.24148342702404024 0.14203447460228683 -0.07222468039074491 
-0.22700411094749873 0.3483669833235476 0.49355175336926016 0.32240848818781925 
-0.07049457352532051 0.15941015994715757 0.05568761347216801 0.30634452179110616 
0.19488450658156792 0.3875407599289069 -0.026998562508597092 0.0939464328087108 
0.2190050068677855 0.015474857571590863 -0.23258767205638092 -0.5017622469501406 
0.35725872612054294 0.06472070769774937 -0.6526141129753879 -0.48978818308742644 
0.15898239197216965 -0.520168212003144 0.11058366904067136 0.11828948872940101 
-0.26583854262288703 -0.3553933971225455 -0.15077047790588985 -0.12433458327761786 
0.5392428470443529 0.06462383727097205 0.019877908309377693 7.664327145577072E-4 
0.009294637036272403 0.5580211628253048 0.0782348397880137 0.10229900780886149 
0.5543661298231318 0.589909973301888 0.14656144709624686 0.44564887867473146 
-0.43702471731875375 -0.1720177086091848 0.4639249080122914 0.1715276787165718 
-0.5137554741437382 -0.23598403668309356 -0.07344784491440508 -0.8500038620798398 
-0.21398473815876395 0.10834358465089983 -0.5316025526283171 -0.43674986088118045 
0.3201274531998322 0.03794190630618504 0.408470361469633 0.32198688415483967 
-0.0381920357348776 0.2544828494162393 -0.19838426170660534 0.2952975000165621 
0.03283775965243326 0.06897505877437221 0.04187122592171724 -0.16240166343604184 
-0.08690018223010018 0.09274162646519271 0.2876959204085786 0.04741152090942393 
0.07624359845072104 0.1137785263583967 -0.07652444318016872 0.21558131320227814 
0.031759679550157405 -0.13504336611535794 0.06465132881226393 -0.07685664313240767 
0.20460205478225973 -0.1119547391105559 -0.17301598372875787 -0.398881979579844 
-0.17656049525108528 -0.2044718643631191 0.4550450139009174 0.3701341410936661 
-0.19503445774781197 0.06318172181581078 -0.0327827838616626 -0.11210968905493271 
0.2707222587513342 0.1664232990859235 0.1844317914101995 0.13028775340905918 
0.31459125522559883 0.0790599817329707 -0.14008339245235976 -0.1558530500127985 
0.19647715997605777 0.29749333855112875 0.13312341511692313 -0.23878501267560148 
0.26254198706915194 -0.09992399040608961 0.26507998502832375 0.1333782535808221 
-0.5496598382854418 0.31495621892278797 0.25329876259543804 0.23821010558680428 
0.6940574012716906 0.09903523452845939 0.29182277545397334 -0.07784157947734739 
0.3418858688879953 0.3936757305071762 0.563026470226766 0.72657520078574 
0.41500387331417843 0.08258952666666936 0.5776766436035656 0.3705542491349939 
0.09868642701311836 0.11302853180055586 -0.007261207491625159 -0.45777722276567007 
0.2111017954560669 0.30322287638754647 -0.21482536430987054 -0.10530306567980104 
-0.1366621558340831 -0.10219753035021951 0.12355350112332573 0.1934483942572564 
0.2111029575035025 -0.1630412491845501 -0.0470208626679603 0.2758189843140201 
0.09200739933345065 -0.025416272536873123 -0.1056217439244679 0.1448498237567082 
-0.345840414773617 -0.4024931663899241 -0.15365788742623426 -0.11776038269114142 
-0.0174451542454043 0.10349771521672699 -0.16131583409224445 -0.13867119695333477 
-0.2019008426913255 -0.0037033953338461156 0.08496057527243231 0.3081786047855834 
-0.07440954544649028 -0.190447109178553 -0.15671313762030548 -0.41399249344637185 
-0.24858180168652888 -0.16501475031716184 -0.3332092595699129 -0.31417956771679406 
-0.47842016490931116 0.04053070337013864 -0.1995637577911486 -0.17455321645368096 
-0.173109048363048 -0.16871047329496455 -0.2393591895617553 0.008114437071529942 
0.017741414578514338 0.10232499693581056 -0.4481451195139063 -0.3415690036076828 
-0.08294614487626575 0.15493652921250844 0.003497112098479988 0.10644152662459892 
-0.16703068745888652 -0.24440577200806488 -0.20206618455833986 0.02228309695785508 
-0.1664554221071283 -0.31827011969038704 0.08425917635613693 0.057328168555554615 
0.2683205099888991 -0.20098533142299324 0.3721201407232586 -0.33231536416272717 
-0.1939003520252998 -0.262393130087778 0.04923367659354972 0.32984175584855674 
0.27457613069400033 0.39509618394846613 0.3657390374220668 0.6868367007522338 
0.45065579309636244 0.11704729638628225 0.2857459533701981 0.15781944625385635 
0.19267604838486946 -0.08615822840323777 -0.7400119877907824 0.3128307204212603 
0.5818095969454703 0.8259610862854636 0.06569289867495043 0.5639795240941511 
0.008475271272633651 -0.5037329983471543 0.3365591475125213 0.060172919414263434 
-0.03405438009079214 -0.016338212844825475 -0.18602357715877266 -0.3859622399772478 
-0.5019293343859363 -0.09494651745866375 0.31861665205586176 -0.295131645529121 
0.34164411222065016 0.01962808900405442 0.22230835186446268 0.3198755465637609 
0.16164046997912845 0.18296033576955273 0.32526529330665044 0.23101916147274837 
-0.05435557957103549 0.03191401257336259 0.10133636681481988 -0.0434212681607367 
0.13839812113140432 0.27692459743792136 -0.5192693389772687 -0.39616851522797064 
-0.12557541902346878 -0.38029874872844915 0.19670323497476572 -0.13931410016062606 
-0.41504652615628485 -0.027146062947189024 -0.08834182881475976 -0.0014127515089955656 
-0.024310365589202694 -0.09385791160252993 -0.08288289921503296 0.12881215211494138 
0.23698898248342717 0.24186343474633304 -0.048212780180883576 -0.028016773379504898 
0.20579216259263822 0.456365328643414 0.05756134632127218 0.03458142895351822 
0.17473746425961087 0.08009677883200375 0.027235749399610914 0.3586322523290523 
-0.05282169750517203 0.02417593752909466 0.16402199907191836 0.15782459541259047 
-0.13962495720012966 0.15746953447048526 0.023474811746691398 0.25480966865269034 
-0.26308166738185845 -0.08820082615016764 0.33319905905807207 -0.013323565299202568 
-0.06881073435073061 -0.05060472602622625 0.1436418086856983 0.1747316730938969 
0.44832529836929014 0.4636747849283621 -0.09226057272332808 -0.22491637745279236 
0.04160412848840725 -0.020525427964917495 0.1880686447549875 -0.48732796878306295 
-0.13611311245685223 -0.6869261911301038 -0.6107299436683509 -0.2737448488264346 
-0.3411846080592609 -0.4443053942787491 -0.08325732738027174 -0.21028112375690305 
0.16957862944993743 0.26980267405233277 -0.36156794842928885 0.17767130088638283 
0.4849285842562751 0.2586847049236128 0.034302378214773985 0.5984917762786781 
-0.11842930444759114 0.17807228082379992 0.04124147760851575 0.05998236253843617 
-0.32247892102855386 -0.17559429024172063 0.1304488174168745 -0.07260420095442238 
-0.21258819440674795 0.2545865647946011 -0.18044650163178305 -0.03417034478150985 
0.302603722353527 0.10714462316467353 -0.2571267681328229 0.5217769401523407 
-0.0323911005462922 -0.2054281014940764 0.5138245477245549 0.3716066161358184 
0.1743444835106676 0.1960425786770133 -0.46005416854780545 -0.24358700072293127 
-0.02668976324085896 -0.3914549866153353 -0.07078387576275914 -0.08519556092927438 
0.385785692515668 -0.09408283195029639 -0.3261792878010868 -0.9581527948242168 
0.09669142446518854 -0.6036780565754597 0.46099948049544626 0.1900637794466428 
-0.8255590124009361 -0.11300906821352669 0.538507802101622 -0.13118346359244734 
0.2716320975606058 1.0929563960036062 0.30660642371747127 0.03956688123741852 
0.6284667811576256 0.26877951322661375 -0.22827541943993454 -0.3062902709239024 
0.038798353415230094 -0.13966293305933614 -0.20101794681663682 -0.023341561863652407 
0.026698356549689724 -0.2785626868391363 0.22359723443699833 -0.16016856565397916 
-0.05666764099039637 0.03933802951374359 0.06508794921749736 -0.31128124781469446 
0.2786186940791669 0.2592745729907121 -0.2243191425249923 0.3886651553387485 
-0.2015576653013087 -0.18659082118800355 -0.1023400773222021 -0.4168538560796851 
-0.06876011233915814 -0.020835026952817862 -0.4444949124318359 -0.3752547800425119 
-0.24214974411832926 0.020945859275117447 -0.05473349978569022 0.1024361499040311 
0.18368044824991703 -0.0901753458426299 -0.012480777133828485 9.238557551727293E-4 
-0.20065481754855735 -0.5862850526955582 -0.0423621520691976 0.18994747272145443 
-0.46680252952489465 0.06508063221657416 -0.3146073073797276 -0.4932604315240242 
-0.21855807817439285 0.19897871376489182 -0.23631914983652072 -0.49114049720751035 
-0.4872069173400683 -0.053091509760857414 -0.6213247355323553 0.06665685316067643 
0.2199837328216981 0.129800951683444 -0.2768643000792375 -0.027638341134322033 
-0.15935311893513204 0.20442899249080904 0.4078379511652114 0.5402135484171031 
0.5180138918355853 0.7596982995274966 -0.660553776007714 -0.20125430994801013 
0.036556287909087215 -0.49798934125132455 0.2877622393795097 0.2644554631596566 
-0.4520139200086234 -0.07573695531426014 -0.1163961467690548 0.0365185854301588 
0.4626259805453142 -0.07193417619200639 -0.41002756446224164 -0.10380560975032486 
-0.01993366755138551 -0.36153305802166325 -0.04147584713635467 -0.2808444864023027 
-0.31705624794497983 0.36582738804769854 -0.36403232204280483 -0.5245955931041795 
-0.16160713782064368 -0.8539522736510528 -0.5747798314289996 0.08458160172645378 
-0.26542411499825747 -0.480631763397953 -0.6158682156645073 -0.051556056358489526 
-0.4350332189368174 -0.3156403748570764 0.20521638053850164 -0.3499060345696747 
0.011825090392940059 -0.023807042556233712 0.034396187890066446 -0.09050744459840086 
0.48701561873680027 0.4867525160682408 0.36736382879723617 0.5480090347802076 
-0.6010346381280018 -0.5446501841857794 0.21665806685947947 -0.38478274123522377 
0.3834822287506652 0.9142308604892242 -0.004788685001597623 -0.15336209775511916 
-0.10777794462778953 -0.468257777006013 0.2778861217745461 -0.2774523844189043 
0.2566126948660887 -0.09733441599400411 -0.6137199224134692 -0.6861945836858201 
-0.19995331378108488 -0.692506366326813 0.08532832248921147 0.24735374016341533 
-0.28051673295266233 -0.04469832504760143 -0.08270471309779856 -0.7710678391590133 
-0.009099780586466932 0.1871153457203585 -0.4001858620607005 -0.6365649781005726 
-0.5666608649261702 -0.3811084518147638 -0.4253634818921644 -0.17812042897014888 
0.3528855669171607 -0.22569645780690117 0.013503540683592885 0.2755150408057428 
-0.38495531395749644 -0.1451521951417422 0.46704653092569165 0.7172853727033602 
0.5057041771170364 0.8708645428777338 -0.9139349560000193 -0.2476074035539698 
0.37843346069262557 -0.5577359991338917 0.3535052913642159 0.7612392728617059 
-0.29442581060185236 -0.0710829699236596 -0.4051349988871558 -0.23766354325048641 
0.4404142075871423 -0.3549419944875491 -0.17847886991551248 0.06864363396739047 
-0.5817511713078862 -0.59930837021566 -0.22869259682259663 -0.37869188098426193 
-0.005088842015112363 0.20660099684869357 -0.3044497686557652 -0.6034712580163653 
0.21957346120910867 -0.7716589377553876 -0.17226976180794323 -0.08329320897623411 
0.2842888596973552 0.0942854599788168 0.028266316174032392 -0.20861044488971045 
-0.18278796389993965 0.20373600466331765 0.13942281457945754 -0.19194302723801432 
0.20568888697759524 -0.0943581728665163 -0.35420304140489184 0.26101775709713104 
-0.1327240667712723 0.07584725653689442 -0.026364545802533286 0.12436497834141735 
-0.47728611568186896 0.10375435266696016 -0.12271857651325195 -0.257973548403614 
0.5003241413216923 0.16177503558222636 0.02306958978296724 -0.1204259774862304 
-0.38969626551468284 -0.20558300726692788 0.24407865026172443 -0.1342395099810513 
0.11475975661004148 0.18812800955417025 -0.22481278859411602 -0.08113977455524517 
-0.1081044666548137 -0.13900561944145579 0.21680769704735597 0.43013048688865746 
-0.0034457985190807813 0.09693387107586941 0.18185092019733912 0.024137758475751135 
0.14986044719711425 0.3143583451161937 0.45257821485959565 0.2644699359981326 
0.15833269315276782 -0.09589750145658538 -0.24514244875866995 0.03608873282228669 
0.27398769848454935 0.34573443162006834 -0.028200433136825576 -0.06569498399410971 
-0.24622248019981455 -0.09888479486190727 0.17555668906399513 -0.02092234631779388 
-0.17496020046467986 -0.3946458385356435 -0.3597408065629475 -0.2958932143923256 
-0.28834353276760344 -0.20626739480123996 0.2518942000021647 -0.2342068543948248 
0.4943126090075855 -0.04938330755961897 -0.39889605629768754 -0.5376255296529654 
0.26902212243229945 -0.3179335994204595 0.4323559747235096 0.44647946680245193 
-0.5174734664075644 -0.0047391601888847985 0.47596226642164474 0.03189495979633113 
0.035890492665568256 0.5156604359387126 0.07313063762620478 -0.11545899364535563 
0.24349108045186751 0.6322151807166049 -0.16507137840215497 -0.31638292835545984 
0.05707073322614418 -0.12238306976780981 -0.17509849561894383 -0.3929286431210527 
0.03380940544432645 0.11887200665732987 -0.27182302839028755 -0.10347154227757564 
0.11949674648855903 -0.44024096661732126 -0.030258564604826545 -0.05030120315634035 
-0.17581978389156117 -0.18156700256136238 0.08944711218956568 0.1690943413464476 
-0.10767796130615034 0.07230949059133139 -0.06544525667993761 -0.1835068095079113 
0.013917199664917253 0.28219641874947726 0.047227099912361015 -0.017660418959677245 
0.32943447274355264 0.6305361837968723 0.14305201012312077 0.5045765860047435 
-0.4121043852141444 -0.22481299824106038 0.06604192199253597 0.10777408440501482 
-0.14354350185300063 -0.30150873347398593 -0.31521117266259496 -0.4875228483351067 
-0.2525930250145659 0.1501962551086327 -0.19909652954248602 -0.5327336043972863 
0.3663887303207687 -0.17350665514712682 0.4932598070019457 -0.060477448118063826 
-0.12179533487563327 -0.056242691129963586 -0.12192207764774668 0.44521110102478484 
-0.5415563513252741 -0.3650871221475673 0.2354550787250117 0.002385039098378986 
0.009489209770529078 0.17849486649632573 -0.5105655014661892 -0.38544790094830245 
0.054110373944414224 -0.06942539957968875 0.12118961471851115 0.12911306003959314 
-0.13089881293935726 0.0020120851232143582 0.08795455907368809 0.680711916404842 
0.5162346448881744 0.23803084863487742 -0.011897121246144228 -0.12759254117239263 
-0.18184532518232133 0.15639479236414838 -0.02379703832225544 0.09572554490238845 
0.24773022243803205 0.05103488358360369 0.02361857113025545 0.010790552937285891 
-0.20237533490360363 -0.5005816838055883 0.44737021526433457 -0.02037703636043837 
-0.2524044782068973 -0.1789943506401829 -0.12182166589011066 0.35359598102110373 
-0.385100145727951 -0.2937804682251142 0.3987496251954972 0.419650304098244 
0.14609242784042656 0.2270773406743446 0.3298982135410195 -0.02559462208250411 
0.43466263491612245 0.11069472919286098 0.19545562440682718 0.1671674861917586 
0.06260956927711402 0.05569336825871418 -0.11842442041295108 -0.16628601040560037 
0.5295951932566363 0.013943823407239458 0.16077147069412914 -0.19355269173794995 
-0.4712872160122581 -0.5214058818963824 -0.9923101505802515 -0.02341940822710307 
0.28027527122453233 0.4522219864299889 0.26571757994041273 0.28243745196688574 
-0.39891331104124417 -0.3042343662868807 0.4143402527039286 0.2317639220218483 
0.010346713034324684 0.11071722905790048 0.25626905465657634 -0.4045258407631122 
-0.06078248008034971 0.1765104408510418 -0.04238767884208556 0.22050952981923672 
0.08638333691659199 0.03504806221232334 -0.4288772877882936 -0.043655681254465666 
-0.12378203335362825 -0.2393975247150004 0.21170457091038342 -0.1618475263738437 
0.29882296785809837 0.2660838016273552 0.15179244672552503 0.05728358458641108 
-0.016273978986305077 0.27834196371788755 0.33988599192125823 0.37982222538702937 
0.4508025116557613 0.349194493832727 0.412220744304083 0.33541185831208337 
0.6193888720650853 0.34773976435088083 0.24360240826494267 0.37045850254433593 
-0.040687324810415176 0.09398702961590308 0.4948676449919322 0.505553889570565 
0.031161570241311817 0.049163361395216355 -0.16722200802085888 -0.09702406801297503 
0.4708745155229712 0.240465448245541 -0.33826200813259977 -0.25122158351071316 
-0.21601042331747516 -0.22327175151322848 -0.10584886772714462 -0.2327817613498843 
0.17966018732372413 -0.23636163211137998 0.172578490814972 0.17041578526603815 
-0.2424941854801839 -0.22628816683838351 0.5905425114596716 0.14872948619922602 
0.24421286957793398 0.24521534668745285 -0.05201915987366021 -0.1761211683216971 
0.0947046313925723 -0.45279517293644145 0.13993029766813833 0.07888051134543571 
-0.2325088407090621 -0.10460288136267665 -0.08785158152828364 0.0615447544268783 
0.46620821508126153 0.19854874747741938 -0.009447009571060205 -0.2255294961732789 
-0.17600240278214418 -0.4108426006097766 -0.8533368389593409 -0.04806093380369781 
0.5522612958023588 0.36630431239644146 -0.04630067730861776 0.4166030782109229 
-0.29448018436269957 -0.4191242972744812 0.6124192127697465 0.5390338718326654 
-0.26090803961920134 0.1463187983925609 0.12374587021622087 -0.7723128343899514 
-0.012848954941381288 -0.2597442547069163 -0.22968117465739524 -0.26108584387479744 
0.43075678170941295 0.37485445231305853 -0.3104712559744172 -0.20068061378885602 
-0.36993424571545663 -0.05834669030613344 -0.35208109775662916 -0.1774451302238711 
-0.050049976541340115 -0.1692363324347932 -0.19026612138147886 0.09944405331542905 
-0.0783035137912921 0.04170844385355624 0.09525269122561264 0.06961045900446272 
0.04833433287780131 0.20722141067560296 -0.19790216841261538 -0.36227450133874256 
0.15706152849250338 -0.21738802029572832 0.17255882179337698 0.24724122077390756 
-0.3958849534741552 -0.14665879190968178 -0.24266597585736113 -0.4312961883547508 
-0.061417442595227356 -0.20774577382438586 -0.017552858724236835 0.11884009880678294 
-0.2619515888166095 -0.15403412515605025 -0.029361611233566936 -0.20444740368004077 
-0.2864311241005953 0.1832875385891542 -0.182673304198843 0.010045972376256486 
-0.06430633716205646 -0.35999215383986083 0.058645488408500694 -0.15005463574525527 
-0.3884821836537786 -0.35541355367462774 -0.5594531668642049 -0.4136977320388426 
-0.161645767752363 0.05141757380531821 0.371892084093287 -0.15699560092881892 
-0.3254709693715251 0.07987469804435353 -0.36075841628483624 0.2713182325869401 
0.25665014444424117 0.3882508014994704 0.1413532490301988 0.7764500033019434 
-0.4098943165350627 -0.14794775815697528 0.13535488447375102 0.22655265499995958 
0.45717029921402047 0.6025170076396064 -0.2586698106909441 -0.10807784865065972 
-0.007677175762870228 0.006044647127729038 0.29210383654935623 0.04439919741819885 
0.17195751471232318 -0.24079876531505037 -0.38170122685771757 -0.141231422818041 
-0.5053835602385752 -0.6495501359390775 -0.1674975235918503 -0.10007967981336868 
-0.5598937322907883 0.04133068932664712 -0.19881496326175366 -0.4558349172652485 
-0.07490152475108128 0.0455259101816625 -0.16644518122867177 0.20691053923930808 
0.3398247168700681 0.21221690276117003 -0.05183092792038577 -0.02003666769242446 
0.4724647559440849 0.138698286605627 -0.12111781820614863 0.21585045574211478 
0.3036671413795678 0.08591829124815882 0.47390691362354037 0.28005943437677516 
0.4189781727161183 0.27130955132313067 0.24801125486934317 0.410187866025672 
0.4807145838056491 0.10145583504417005 0.1880633895593622 0.17464631848277928 
-0.22446159220495868 -0.04988667268660222 0.26022372129052707 0.462033199817259 
0.3146739646010895 0.31203637796830747 0.12079214410446391 -0.21828828787129348 
0.22305113838858112 -0.1912890339240868 0.16682391576117578 0.21560375208404986 
0.10289120545537368 -0.1773641977773608 -0.4773890126514852 -0.4087741190044353 
-0.07876189718396266 -0.2268866361473452 -0.187515586164121 0.20770152994535987 
0.09256801694427501 -0.040344815526971015 0.2577280834278797 0.15088478064958852 
0.22250542208605245 -0.23417106481887953 0.12456811532943086 0.32575049626998814 
-0.06899382648413428 0.2133634160542944 0.0020520607329491897 -0.1298874784591089 
0.41951120361556415 -0.23679685684537122 0.42798601755098675 -0.03508563734324035 
0.06250741582778546 -0.03994795519580912 0.18323821203708635 0.6996704784224549 
0.6976992073020178 0.45948000844812853 0.7112550606895568 0.08953621297265195 
0.18150190776311062 0.0432151078369512 -0.011135220277400024 -0.3896749790038308 
0.1685245651458104 0.13169022268490096 -0.22350165725971996 0.015001522674596519 
0.0697345611787894 -0.16184950175463764 0.08263854077170298 0.14433136042440367 
-0.22463782382214556 0.16881347643911454 -0.008625891414736386 0.4478858188247655 
-0.03833628594786251 0.02919150482600055 -0.07646184404534354 -0.132151109786096 
-0.6725300406387246 -0.19772203302511845 -0.16970388905200282 -0.32774938615501864 
4.5792911955268024E-4 -6.470135872774955E-4 -0.7297723216538178 -0.09127983551496816 
-0.4279998933230587 0.06105110787493793 0.6500728562759275 0.36875806599698296 
0.3259797935607631 0.194762289416238 -0.4944974428430749 -0.3053727720521807 
0.18698276085068563 0.16868864038879341 0.7383497117727792 0.5052088045902495 
0.9738089045975126 -0.2152991024592716 -0.3733320711281083 -0.7267857819241527 
-0.09435047200547081 -0.46366123838399476 0.1360885080249212 0.13630997741015663 
-0.9593708782116025 -0.786346274312459 -0.27239835915647154 -0.7770477772665524 
0.04924088306240715 0.4382429025627877 -0.24139180685149364 0.21534230412509311 
0.13107584994883514 0.09260475824864109 -0.33221047514081375 -0.030005952843772367 
-0.02062617569044433 0.11504337115803061 0.012274685441899946 -0.016773537873633018 
0.26265253043083103 0.18105423724133235 -0.23420070215289093 -0.10580762933603305 
-0.18552239504345838 -0.027896229608272014 -0.04805416640782033 -0.04762865473785553 
0.4426528094270163 0.3388825242642895 0.04531552862207635 0.09957971119718445 
0.08275470077106575 0.06907256672162357 0.42051927704209574 0.3661561647485965 
0.5068904413240096 0.3432508098649781 0.7018155638096161 0.13496492100221133 
0.07736228967043558 0.3447842217264658 0.10055796437975459 0.1051565464993188 
0.38261873365589366 0.15593000748166175 -0.06279000044999143 -0.1414427571277344 
0.0020544094134760356 -0.31074085601846946 -0.23555500572871632 -0.23134564077274233 
-0.07423144442831853 0.25488044152434275 -0.19184359979076865 -0.0810757898575397 
-0.15751039920286922 0.20978147217430324 -0.10366314044847152 -0.025137864706427947 
-0.0029734860292235732 -0.03316229023843656 -0.19494995471511667 -0.14625809757154454 
0.10353982025439042 0.05692870828413903 0.22818879023863542 0.4542722351975657 
0.3385575086940101 0.3450186611614196 0.37816871554049475 0.34784118374087314 
0.13663337679848048 0.5448082104144707 0.18879726263481816 0.14577748949667305 
0.5438802280959674 0.41612056713116896 0.5641713343043208 0.4681713031547708 
0.24682636879178663 -0.08370343610887221 0.3139769673211149 0.3740715730448471 
0.1427578163731 -0.11982425850477382 0.38077068059783303 -0.2627511042623033 
-0.07989309962973234 0.1858552827865166 -0.006325368462731717 0.09959774687343245 
0.28299016958082346 -0.24220624336352897 -0.14349749443853288 0.12195239248414927 
0.018505912506658142 -0.3175268707006066 -0.007859697524527521 -0.08889619612987004 
-0.9113807634746441 -0.39240003157305087 0.3896719024126107 0.19088635745701765 
0.19612241981160808 -0.3436013385099777 0.8032615628004072 0.046573055182629004 
-0.2913080063809018 0.2579604766348416 0.5627856695785406 -0.044681732963333 
0.7850062691570607 1.0512414623063457 0.9168088623463274 1.0355797148482355 
0.2387340503495672 0.04503961950960412 0.5648863433653821 -0.09540710405904834 
-0.4158379148036722 -0.37646055166566283 -1.1862605637069377 -0.04118740878849198 
0.2876318544202999 0.45852799636159397 0.409948468754214 0.2925855914106868 
0.10655985709138237 0.1508745476986747 0.3456085005365777 -0.20816419541247538 
-0.19239140952893355 -0.4078660801314545 0.32686705552937595 0.14323498283438604 
-0.6347399177170305 -0.2605775563498667 0.1572907032214321 -0.4645086034484896 
0.047944895034792795 0.0732914557176697 -0.42975789540419723 -0.2721932061176665 
0.40283467221671587 0.2068944646173975 0.05620754346956364 -0.05543578431018147 
0.014610915620629975 -0.26708311506073235 0.21147511236767472 -0.1753172119432574 
0.3967215289026115 0.027419583452485418 -0.12534245121919266 -0.11936771299279951 
0.3147352431779935 0.18866058226211851 0.4999618581160909 0.27130780945171773 
0.6000018334713662 -0.08976753487748083 -0.19696099245688276 -0.3155136863894755 
-1.0637722510751548 0.08195570623744887 0.7114936219331791 0.9448311684154345 
0.11988765631312796 0.35256354863033607 -0.1265210059511812 -0.23310916167346343 
0.8853352147722205 0.4653330826215479 0.03790007930138997 0.04799474819169723 
-0.14077633266571546 -0.7143977749114413 -0.3435659469857506 -0.31017161720906683 
0.0016625650720039598 -0.13267228299591277 0.49822913237817285 0.28830924664380914 
-0.16682399643270016 -0.07099519909622366 0.06784162961230404 0.24021394716418806 
0.41287944270279703 0.31903549365138767 -0.13175608058685254 -0.26428301405189 
-0.14519397154306896 0.16123599067046285 5.407998174673508E-4 0.2512418135715241 
-0.036033623468940776 0.049985138879773565 0.1895213102384141 -0.016807743091363975 
0.4967341937318464 0.6531276032753848 0.43703870084197544 0.6310874532872 
0.15192597467149355 0.17212200274775433 0.16253729495771777 0.25881999906487346 
0.41496515642282666 0.6248000831271622 -0.13411752053984208 -0.06988210377309609 
-0.042252097007749796 0.11564053997688611 0.24112848900877662 0.11012403371071224 
-0.3822363216384601 -0.23829146732109563 -0.2580149344510767 0.005692702602603738 
-0.2837388955955743 -0.35423887454210257 -0.2958729826300427 0.27911856683786523 
0.20963576725692937 0.2900754637261092 -0.13247050400586716 -0.16931283198601543 
-0.22251191723370137 -0.17413213720298104 -0.026756313859025542 0.09400000908027617 
-0.1650811872949684 -0.19432864123452093 0.07708751032545423 -0.16145090038477447 
-0.07627727925678629 0.5183458085925512 -0.027716824914936433 0.0749087075221196 
0.2867784058173737 0.20486983360473132 0.10093418727515249 0.3854400407909844 
0.3294537158132264 -0.12103128687546169 0.07502631138882493 0.2624220215226288 
-0.38529777726475867 0.35532280645747033 0.2522538024527204 0.7025903093786265 
0.03021264017464507 0.2665318428689326 -0.21857424529609168 -0.25005906653451454 
0.5819836722710987 -0.21008484907705494 -0.5309813596567557 -0.34787725244989837 
-0.26211845140100515 -0.7820782746949232 -0.2440773167043172 -0.10548757556198206 
-0.2885337649615591 -0.6460715687990578 0.027068942565016043 0.11110880845802137 
0.029593860329690868 -0.23381939937001445 -0.4314396892201936 -0.3400731790618498 
0.15634750334403852 0.29048305131157237 -0.3131955275830903 -0.32789951409656043 
-0.09312730337690293 -0.16233884065426102 0.09780630905001646 0.22215826109430697 
-0.416092509298529 0.07477521458540676 -0.01101909556439402 0.23633038890721475 
-0.051057916779429245 -0.03576824213130985 0.26313151120126627 0.0835881598833688 
-0.23867377616955632 0.2292271309888796 -0.32259620934521493 0.14516948047251615 
0.034123084460512966 0.19269175980231204 -0.10698670331093964 0.13796939873315284 
-0.1744984905024335 -0.047717660298565834 0.39909356295032317 -0.2717635567840207 
-0.3516158549803479 -0.22269373112343707 -0.17795638662962723 -0.5822022893677081 
0.08554711164811804 0.09433115308052102 -0.3573218926556514 -0.37841450693979556 
0.17449805579457012 0.048946733189380594 0.511646032467701 0.11704329591834975 
-0.04258656732030019 0.29758357575593675 0.04950710734705946 0.0808672263893933 
-0.025960096349029967 -0.3764558497371354 -0.13137878856921872 -0.014644362565482072 
-0.12836615060797427 0.006814336853252991 -0.08038961539887252 -0.4011519203997325 
-0.18059078669664413 0.34703012618097423 -0.046510257560625066 -0.07761626211232375 
0.29728771836525386 0.1316474657623906 0.22231352369161778 1.0439132956893895 
0.618174021530105 -0.17390275412525455 0.5035543856359707 0.2173354101274309 
0.1994682952878295 0.6127191523967758 -0.30315644567471556 -0.04703519350464373 
0.4135533057202487 0.014231731353303832 -0.4308324219078182 0.3001292338234122 
0.008163976509826847 -0.7027906477802125 0.5481267539725466 0.2456539469374958 
-0.030261328398342415 0.08501940407769878 -0.10188224163378695 0.11264377931681985 
0.5363107420025307 0.010772974502838597 -0.05339715806219214 -0.20573016565878455 
0.02716944117327761 0.1530774508752879 -0.4089062551006163 0.1730460360006016 
-0.09247845326589958 -0.19377887871399163 -0.27425355995525746 -0.07392339568511604 
-0.18390528140513443 -0.4602247703731185 -0.6979532235178979 -0.5283502685082554 
-0.3537802030532724 -0.10518115932499204 -0.7395312930930825 -0.37896458080999645 
-0.08836057037868592 0.3982634699393026 0.29132403095220655 -0.04691227986686217 
-0.32194807541924947 -0.8023954153281364 -0.17645769975613396 -0.09809722082428579 
0.2710857851697244 -0.04307637426922942 -0.42820681275461064 -0.11067343676058851 
0.09887299987468612 0.05420524237477758 0.07544647612364047 0.06612707040888763 
0.17130483980603667 0.3921325793159009 0.1324900635443526 -0.09548275563386853 
0.1485290459863244 -0.13949131062998316 0.0838392854337968 0.15078296909944297 
-0.21509247659680092 0.03564179062150713 -0.13214251192171272 0.05990957038682123 
-0.016308604256153 0.13860649080853849 -0.016510148733713013 0.0011063875798222223 
0.15007803217306678 -0.1910766513210277 0.16621580872199707 0.023121559973241407 
0.06824361564830557 0.28974886651008047 0.06370971347106663 -0.17439872254596725 
3.219792493818204E-4 0.4443772237028568 0.2435746034665273 0.34989209644903696 
0.8028939080380636 -0.0813524750689228 -0.16239658651988928 0.16641122103923844 
-0.16585629533033872 -0.15002326897303367 0.25840123658909353 0.07578745710614983 
-0.48824307072300416 0.005152642864165108 -0.040925941508681306 -0.15074416746552305 
-0.11815254081772991 0.25255298981735497 0.17186127173694593 0.280112972837206 
0.1331302588211162 -0.1448030415714032 -0.13281250818392745 0.012949319728212368 
0.051609345828662896 -0.2889940333134135 -0.2622574169091923 -0.2004194564189346 
0.1910749643716886 0.21508255135914733 -0.3370501954467398 -0.008388517453212218 
-0.12903889434040683 -0.31524184767296665 0.19475031780958632 -0.12074729267139148 
-0.2398600904848413 0.30753594947754714 -0.10909782002682403 0.4042450280483545 
-0.12690249106745247 0.13573227155917864 0.27026899938036736 0.1148325876235538 
-0.31945585945334376 0.3829760619521931 -0.10537455471409102 -0.22613535533320064 
0.024152329182935917 0.14880011023065925 -0.07426648864013055 0.4131734346252472 
-0.45775533402567103 -0.09947660720492452 0.10344178845161375 -0.1410992891849613 
-0.6183368390388458 -0.2607346598118497 -0.10081936921542586 -0.32186145932678145 
-0.4021077493042425 0.09455243294996481 -0.25986803680687814 -0.6453570430051139 
-0.005378569364941628 0.2577295460320505 0.43741785466071004 0.20977464382498132 
0.05145743150183796 0.03872332885499598 0.12068909457178302 -0.023623309763329662 
0.2145015276138167 -0.014249227835846827 -0.10856956537005139 0.31811242335790463 
0.2992102172814635 -0.14711088624477195 0.136569845356879 0.12155223900897869 
-0.10775790226893334 0.005490581464385185 0.0015708992937542151 -0.09165495671675769 
0.15821602138907215 0.4152705184020963 0.028307694675417938 0.08017914154740494 
0.6307467031237782 0.011440290798959737 0.19401769091111515 -0.10760974957605547 
-0.0752989662929611 0.2046869620087556 0.3032612283354632 0.28690658169603567 
-0.13259469730393156 -0.0099200285786391 0.20306360649499763 -0.13889767667656466 
0.16900938846304706 -0.05391093856451319 -0.017894398920515656 0.2704023824621499 
0.20179280586976048 0.43551292093081057 -0.06868316679105288 0.2508555270145481 
-0.07123438241706834 0.4471264761603955 0.37000951724583775 0.032603553317162 
0.41237000132169543 0.01664968381868575 -0.1079105871728265 0.13068679540406872 
0.26170234370948864 -0.12326281852033516 0.06642316304010286 -0.11684201725352615 
-0.200992585719099 0.12167552083569068 -0.18986100195713576 -0.09551694641360634 
0.08083888767022872 0.09665565421993325 0.12617772377769773 0.3974474470111094 
-0.1486608923430188 0.0846501466153965 0.4675736670062301 -0.144262398936731 
-0.1102739959071892 -0.13589979315694461 0.13992886069529364 0.10880930436656466 
0.21815706929397216 0.08192595677190417 -0.013694325887465443 0.08602648346336866 
0.0907811305543525 0.4743508943914434 0.2448249270809024 0.1871995755724952 
0.2908851306344205 0.42260879053909434 -0.0420058915518693 0.5861252183487888 
0.0678523157003796 -0.09258933444336809 0.5438597433922933 0.19671629284257588 
0.6177402651014795 0.40086956728647216 -0.0547193228918862 -0.12233514295046147 
0.2850429425659694 0.297698618296464 0.06095634513259068 0.07751861704098956 
0.18544185822104167 -0.13869514734296098 -0.34714318032741204 -0.19377808102711658 
-0.47757429089962217 -0.7274599290233332 0.1794681662651324 -0.2651206989349351 
-0.1570788775167835 -0.19529313909758492 -0.6137162372763264 -0.6971207924319632 
-0.12077838436589912 -0.31557255857100197 -0.4907467663589011 -0.3292995757426761 
-0.14170191886320724 -0.3708207372469505 0.18276902464195857 0.3447880849496837 
-0.004986195057506351 0.378992764936194 0.40009851512688943 0.4969765696579262 
0.07096837851295308 0.6015048200142191 0.1321071020170253 0.20109969582783666 
0.47591123714931594 0.857538327436115 0.19966408009337427 -0.1554799782551903 
-0.07984462754733047 0.1364305920512141 0.22213964770361444 0.18844002372215365 
-0.20405988661731728 0.2316307229223687 0.4167627878911411 -0.030139460100462968 
-0.03463438511959826 0.03896832743483318 -0.1162369252135457 -0.28343325432397376 
5.087529522647553E-4 0.10834991913578636 -0.13765078432923014 -0.3353422096595463 
-0.27998608203928693 -0.16973638306761282 -0.09861854860212575 -0.19606676169884812 
-0.6348919662241471 -0.5350329861830873 -0.3111876378134727 -0.2522903549855161 
-0.2534528540431286 -0.10331501450087824 -0.15477519968521386 -0.112302223801608 
0.3869422993915308 0.04870330661246303 -0.21350194784790308 -0.022504514187732538 
0.43856003948127714 0.05701721774487634 0.3565123912098165 0.46365204084155115 
0.24294517471409632 -0.14405064927698152 0.31915352826228166 0.39974647744215935 
0.1454588720544871 -0.025798415938338478 0.6802746159985378 0.06685209777111535 
-0.20765475504551476 0.1271682136533295 -0.24709424712588554 -0.13695613508718962 
-0.06347665731457215 0.3184828084124563 -0.1004387993450005 -0.31157636003315187 
-0.3096607193290034 -0.3208695479711416 0.1454038947441382 0.06608151523804891 
-0.46439926303799195 -0.29466259465660166 -0.44541868028525805 -0.21044741436250775 
-0.42624967688410315 -0.4138365440625489 -0.22198020386289072 -0.1050376087734031 
0.5415328912346987 -0.31426731979758543 -0.6668301490880454 -0.9226235585540552 
-0.24127127867620843 -0.09565725266854005 0.3905956326651944 0.16773609239351708 
-0.3152885675380859 0.13217089149004838 0.12054015731134171 0.138884413021103 
0.38384575805464455 0.7243647143174846 0.5807755931690225 0.18111252763280006 
0.15124418783114257 0.36907623769631187 -0.16283381726419544 -0.1373044813041956 
0.22705902199220865 0.11219341212703622 -0.21484985078877084 -0.16965619756265424 
-0.2470999703403954 0.1591371461868689 0.05619910135459905 0.09130722459586982 
-0.20466264636467746 -0.20747817447399064 -0.06973491809160103 0.03229792742335645 
-0.18227666614044905 0.29252121760653466 -0.32715279189676677 -0.21190094117646477 
-0.34610017656726266 -0.16757725190545944 -0.4035817403768929 -0.5928048966674431 
-0.38361214441144187 -0.4233865792100876 -0.40350153184032134 -0.28108717275860634 
-0.36620453686996673 -0.0879263325728091 0.044826499276334746 0.08216980186278225 
0.16074110538219624 -0.2862321396985488 -0.14760394870373264 0.04662401749794607 
0.16152061750942037 -0.13094569400747047 0.24170805610494048 0.20137763997488178 
0.1505717648097736 0.20373835142245442 -0.055415420512728984 -0.3008915320343487 
0.024444968955032245 -0.10220692912655119 0.2665542460131684 0.3923098969554893 
0.5064438915972629 -0.05399789041972597 0.24226862176442654 0.30459783560185544 
0.10871589880782519 0.15293883578039547 0.14292834201402785 -0.3081943152377849 
0.025133719600536338 0.0814620752574467 -0.29840328855053055 0.02520318835816643 
-0.576367476215925 -0.5768621394945379 -0.1706743724587147 -0.33779126748007826 
-0.49581912040883 -0.30231765734453714 -0.2875764479526739 -0.27413891072964564 
-0.22208293404354176 -0.051236518158369916 -0.32137217882605384 -0.4586812520510966 
0.15063864229363602 -0.24066530680076573 0.29272143437513026 -0.05222024878921827 
0.11649366579477433 0.6382388581375364 0.15011494159557665 0.13937834275453054 
0.4399922611755727 0.2788811201639325 0.4367176951720988 0.4534130040624437 
0.13623590340510003 0.29239419182991266 0.3133717288713881 -0.10996138462744459 
-0.012378426957890602 -0.2988026796494674 0.24934744167716033 -0.08028448313240404 
-0.1668076731110462 -0.12366086658328196 0.46083170197211365 -0.019738995998794927 
0.07729957941326368 -0.14766367175650838 0.01407070451854054 -0.20679207705021307 
-0.002304566591792005 0.5528037595442942 -0.42777494848760683 -0.18529067865792154 
-0.3810154702117069 -0.5223500200058332 -0.2596988096785103 -0.7623616726288774 
-0.5145391371675628 -0.3271649893460997 -0.5041543144224269 -0.3028217882311835 
-0.3054448921299279 -0.032279885627063375 0.1407235315080665 -0.10196505830167875 
0.19485941537540657 -0.11457036528114303 -0.08786656652162916 0.24687000876365223 
-0.07143512039131125 0.008673330475915625 0.15843022948997817 0.08327921394691849 
-0.062360537287252486 0.06711409963396132 0.0372141271269358 -0.2375998288021357 
-0.05089089382761746 -0.09650677754672415 -0.5126788536341864 -0.2531379244989854 
0.3288721206150022 0.2365584037471852 0.24710462698758065 -0.3677818495105133 
0.570562705244691 -0.27854413697767 -0.21496426057955167 0.22648237559662185 
0.19835934928436103 0.16445949268013746 0.5336742787551916 0.7799480777299413 
0.9121984701319414 1.0511568091373766 0.49550498047971725 0.43680571443868826 
1.0129791840050915 0.24527165588954472 0.06011146036617913 -0.4649402725524271 
-0.929554351906229 0.02200630500186033 0.3775812615830127 0.9434975274092017 
0.3107377752406223 0.20883059655075095 -5.39494790809652E-4 -0.4518005146905444 
0.7368159098310839 0.07771207113057298 -0.11816824972101486 -0.25888626771367923 
0.1414804981269997 0.10882877431915308 -0.7224603358774454 -0.6001069554068797 
0.00786903202219829 -0.14346934429018585 -0.2598644039203696 0.055999645820977745 
0.17667295009377657 0.29318802787237247 0.3450575902480698 -0.11567594658503068 
0.16102632841406198 -0.08052015131549327 0.06372707033233732 0.1802723686574719 
0.4724337917987743 0.06424150446136276 0.3126160118582658 0.05642549875443818 
0.04268311995042537 -0.2268588941307438 0.3161588780180839 -0.06557107198071917 
-0.05854041734518605 -0.2749657552325431 0.2272684024966959 0.2536243673341579 
0.19385814788115116 -0.4246820090528831 -0.48076404814887364 -0.15520058001608564 
-0.2631064177617942 0.007490937857507315 0.1336434688314871 -0.3198459303527476 
0.16161020815010402 -0.24635098743194875 0.17654627863312253 0.2180319430176654 
0.17839052091188984 0.3642627197723842 0.21521202659938085 0.2791826379334353 
0.13511176424796728 0.29757948578558846 0.42956152698282096 0.322145175222111 
-0.15458221367271407 -0.2575871644081171 0.04191893869885138 -0.08938052848910796 
0.3250912926687206 0.4533414581719737 -0.24402241676280625 -0.166983974876447 
0.47187517046913674 0.22109245029713548 0.10961004671376828 0.4758669941831766 
-0.19589203999705151 -0.35741486784529564 0.42456937884393886 0.4979048553352519 
-0.2148999757778939 -0.2522785717607304 -0.5578303348689223 -0.3329013252596341 
-0.26196757869163534 -0.5446438458605599 -0.8531491364172 -0.8772022714764588 
-0.4773578181691403 -0.4264494878021215 -0.5133224100052819 -0.7206746002077621 
0.010544853560977717 -0.4725274208579025 0.3211978726094596 -0.04036115089820132 
-0.1615030757944102 0.2353510675793369 0.5133713721258764 0.38502427171913794 
0.5209435542748133 0.5410802325152 -0.13508155264897687 -0.09259605273097256 
0.5765082716734659 0.33531390077036044 -0.15723794100467103 0.009310468969704184 
0.15227143913167152 0.3521725196832273 0.15914269888160126 0.1195127926457671 
-0.2824498511495838 -0.033783760378538405 -0.2527330191178561 0.4592336595007441 
0.092856243136911 -0.24648456163173824 -0.32143898446654073 -0.47432090425423723 
-0.47406714251716386 -0.12151700629725273 -0.38466660640801476 -0.5072478960901111 
-0.48779979566759574 -0.12102748687406148 -0.7691230015323894 -0.6031569012646963 
-0.4175194060826921 -0.24772120259478397 0.1615416441758604 -0.3613732582928433 
-0.9144845906624471 -0.9042146776126582 -0.1757979534660552 -0.31393701225204057 
0.13470212440694931 0.30181071520906627 -0.4398570498829838 0.16525258144170438 
0.4215080454002549 0.2647698573819213 0.28678940601375286 0.5877137360817122 
0.44180929503537353 0.32990591379658507 0.0019027807967139476 0.47201549921162317 
-0.2147164570362333 -0.06591005736798815 0.17308253576986277 0.13780633385154575 
-0.5289616110456206 -0.08569331430503135 -0.1371336145765737 -0.12340883110628915 
-0.20696250280231543 -0.16048981728878978 -0.4533948946865187 -0.09882495506296986 
-0.28719739800438776 0.17018560259983245 -0.12730799543664464 -0.09916047759925642 
-0.16087003671684946 0.1676357150870732 -0.2524200102793406 -0.18146258377164382 
0.16996049895787044 0.3180374785093219 0.7800368652414328 0.5885645095472464 
0.9024678077429538 -0.007888157868180931 0.008267393822270746 0.11323260872075679 
0.11153298522426132 -0.20858488813615714 0.33044816348289163 0.2694394432901817 
-0.2830352999148662 -0.35380283718408206 -0.12067745122551687 -0.2248482925503861 
-0.11490772932403269 0.05752535984412275 0.2554424951293395 0.2471585757832503 
-0.07473224947335008 0.1500103365082052 -0.24778137264487196 -0.11925437583965605 
0.046846170521031176 -1.0756461888487552 -0.1678894665356309 -0.38604469758370724 
-0.22134032013109256 1.1701901058820716 -1.6499927902360598 0.7398960716070572 
0.16124270237463678 -1.4831672235783835 0.4323891654540902 0.7249082145642709 
0.3004352356478069 0.4016686203050527 0.025743016282156486 -0.7259073529542354 
0.08789453015101162 0.5790639588995716 -1.5456897148046638 0.4630700220292024 
-1.298480627686696 -0.7890252018795407 0.15023906721236427 -0.7186348191747642 
-1.0995296501030447 -1.054077568860071 -1.3412553474869486 -1.2651835972137069 
0.7921431836548847 -0.3643068541873153 -0.686272254893582 -1.4065050971471365 
0.47551555054884564 -1.4253372929154926 0.7037553899961264 0.2294778816049702 
0.8955760940877574 -0.004752278673354453 -0.8289318679014269 -0.78438569251642 
-0.8729596412237689 0.7686321398373752 -1.5918187072400687 0.04437521764291745 
0.6784639514463018 -0.5906779697454307 0.11979407088206843 -0.2969236926997598 
0.740036739700662 0.5773377567282391 -0.7364673814158826 -0.9240942250164945 
-1.3686420281934277 -0.9245823772022451 -0.4781726977552003 0.13648069033121274 
-1.135392118996335 -0.6742887674317858 0.7988944533234767 0.07750675574080884 
-0.1404983705302317 -0.631419528421179 -0.9366291497752678 0.6290622139650611 
0.4026487119377305 -1.0144340463499042 -0.37666297495383405 -0.04358089368992882 
0.9713062496139052 0.2986355922226112 -0.018355740684362208 -0.9515988632961039 
-1.0337982813182638 -1.314510982655871 -1.1835616869292396 -0.323793783242417 
-0.8658393310821598 0.03734212562464441 0.33027698317328275 0.9113982312885321 
0.2908178361738058 -0.42666430301803854 -0.5228174276475008 -0.007328774988235737 
-0.3063978665716998 1.3367466442715121 0.9914911669989286 1.1969067017463397 
-0.2915697213713991 -1.0319438845478428 -1.0856192281599035 2.27651813975824 
-0.9019023278308433 2.0703214621237462 0.7315680827035448 0.1083684221578851 
0.2839339237645073 -0.6661694942434393 -0.7088265446814181 -0.8115436455005671 
0.8615202970461159 0.7122834820444772 1.0504849887620782 0.07360588154571161 
0.34039846346085834 -0.265924344212627 0.22389724888628726 -1.0084398197917341 
-0.4512748752716551 -0.40453576150493326 -0.9679726491514044 -0.8496695471055115 
-0.27647397183895817 2.2491872106961646 2.3378439163129885 1.0389062225211878 
1.304477035373781 0.5364516424231347 -0.5975251504936572 1.05400002880599 
2.0580131739367036 2.2785844459793854 -0.4498771151737056 -0.6192138741030592 
0.005848679934831349 0.45678886911264055 1.5917149710882559 -1.5974170862005588 
0.9227327969716504 1.9118411086813554 -1.1953495068186752 -0.9523033947638413 
0.7215369291918204 -0.312297824970658 -1.8120892137366515 1.8489281311646701 
0.1480726082865676 0.03973120713203095 0.5223004346310129 0.09394398051786634 
1.5971531605968727 1.2081397224886448 1.0519538446443992 1.11073179336712 
-0.01780580658738672 -0.46144509003969164 0.7393646497080072 -0.20103459738316581 
0.6099114305670615 -0.9292498674513112 0.9606860095214186 0.9789725662457973 
0.794601020077545 -0.5776965518861065 -1.5331564980960475 0.0026514100872140098 
-0.8901768986885361 -0.4536135686694892 0.6593048606973803 0.4062155397562177 
-0.9840709992827339 0.4666566894101755 0.8026630639119456 -0.6926544202343805 
1.3334764519372624 -0.44701227012199024 1.1278336980844434 -0.8274245101039229 
-0.5924845054909733 0.4861808391107263 0.6040456378720258 0.5350638916327786 
1.708381473597549 0.7624032622429032 2.0432991910386256 -0.2730418605768979 
-0.07335797368805014 1.1529311360007501 1.1871794122148238 -0.6895964449103342 
-0.45949665300075127 -0.1860685132869859 0.5798267459368933 -0.9143194100970747 
0.05990227290350325 -0.9606014457307354 1.5085732115173824 -0.9671698956805653 
0.5473335740787265 0.8131231884636262 -1.605008611422267 0.777416392429916 
-0.4830071523470619 0.5844398313027427 1.187687434409258 0.3839631297573669 
0.03903356185483626 -0.38706379482842046 0.5158628686354071 0.805447221497742 
0.5608978980968142 0.7620717927094656 0.552429127480556 0.13716338459139027 
-0.4983639720871246 -1.17005847690417 -0.40376067542423466 -0.7678504059168635 
-0.4916680863148848 0.4797507200285668 -0.5428850808990522 -0.03087537497438181 
0.6949222108324239 1.4164765305500893 0.23199688561458387 -1.1647257279921872 
0.2109092605931237 0.19673421259958734 -0.7007049661549912 -1.2608338863650304 
0.4087346962197446 -0.10648376711681282 1.3491247970117732 -0.8645339377211544 
-0.29796652365994897 -0.6835946387974352 0.21757292080131607 0.21809467689981957 
-1.3128057977712024 -1.8138295797252655 -0.8545831212508923 -1.167785056373834 
-1.7543920452354163 -1.7421438560755662 -0.4612089156046881 -1.0678468795783504 
0.7674614062206842 0.768931578779989 0.2310510955303934 0.3860378602280158 
0.7321042739388753 -0.9765330524631571 -0.7856739387576479 -0.05904816927153254 
-0.32992343567358645 -1.7911701476880677 0.0892725837860369 -0.18744235052961897 
-1.0917719560463985 0.8714991448888089 0.6105899311958242 0.4974501066760745 
0.10536913233716412 0.9754802162124968 -0.6292594388501603 -0.3411071289143177 
0.296706451109277 -0.2551901170427867 0.22248067449552186 -0.6215331105947252 
-1.1518910047252653 -1.373812935316427 -0.7665191220036354 -0.4343867631068286 
-1.2608393234950301 -0.16404095967532692 -0.3511557497507579 -1.843234619701015 
-1.08819886233649 -0.22014544697567748 0.16525152589239056 -0.37592630710150216 
-1.1451402781746134 -0.48278067805308666 -0.20991811663788765 -1.6418674148197552 
-0.7410142682866631 -0.18832265378572213 -0.5579005327670125 0.18696199500874303 
1.3818209102318446 0.5982432699865569 -0.606588395855864 -1.9804718735506257 
0.04107068420733615 -1.1230421232709928 -0.6505724367666623 0.6656909114782358 
0.07151414773892964 -0.04012490802035026 1.457705242784818 -0.1325497930281864 
-0.0552973495995798 -0.7133529431079291 -0.2781826293772128 0.2690057939612534 
0.3740807099784202 -0.09305446326823563 -0.632528302424221 -0.7596024814322887 
-0.9115990185165826 -0.5954739581528709 0.4423493578221074 -0.3533174416678159 
-0.2506196287319704 1.4564828101270577 -0.05147792527742844 0.509389756585224 
1.6058572084166163 0.05849740996540302 0.2929633990194424 0.5328705276489782 
-0.8123275081282301 0.5815167285245532 -0.10622668390842491 -0.016090928039019858 
-1.8734306681914763 0.581459442829101 -2.179389325140181E-4 1.1022875435380077 
-0.7401861861695695 -1.535290324863048 -0.5647086549131937 -1.2708362793333636 
0.49545772717585934 1.4717854220765407 -0.6892686738173857 0.6972453951161849 
-1.1456274398245534 -1.089424426263058 -1.2782464442030315 -0.003237677745623443 
-1.0123516669400445 -1.0976712128321071 0.3846960196901189 0.6697691647936154 
-0.33996196279546187 -0.9928596474287079 -2.3892126118286114 -1.681443842125337 
-0.8209815169937531 -1.440082536788795 -0.5505955737254047 0.04519353970793203 
1.3755426989870057 0.3290302236022925 -0.8743275561598596 0.5192133140014118 
0.7067992934752899 1.3188860746111062 0.11938000905103546 1.6293492748988072 
0.17224877192639385 1.019442621004564 -0.24128436005799625 -2.483086393832645 
0.2325601901622579 0.5873729835720612 1.9623223840871393 0.4231937983443302 
0.24070835531467205 -0.3633500628415123 0.33500252863609103 -0.30303279552835816 
0.1260741394286696 -0.2370309111659964 0.333186969593426 -0.04823896058196876 
-0.060237585803567015 0.5655658829212357 -0.8700073199595347 -1.8589269057336504 
-0.7486660962408699 -0.1097484183653318 -1.507105946847538 0.8151185870701565 
-0.19619713095304206 -0.19768746191171713 0.9865130354428309 -0.9957110625881761 
0.4650680256336232 0.1821611567724651 -0.654188152091149 -0.7151468290293157 
0.11928791580643779 0.6412182494658292 0.473604006640937 0.7088775506742824 
-0.25102331054042765 -0.5162919145538714 -0.49922495098889486 -0.41654135966183137 
-0.8413085552237412 0.6835208169153035 -0.7026478943786831 -0.4877051484833896 
-1.834322815374963 -0.031284193024917986 -0.2932476248148928 0.211207433117771 
0.3651471405058872 -0.5750325388311776 -0.12074858067007349 -0.13403495778094474 
0.6234483173138785 -0.05356800376133057 0.061210359660843226 -0.9598792427648151 
-0.42207604015188704 0.5059065828536348 0.24390319958608703 0.8885121763190277 
1.3483893752468954 1.2343651026993165 -0.006817264300270655 -0.28817290034337134 
0.10751812704646821 -0.3735410844576036 -1.0920198996437522 0.5948269835667994 
-1.1333588306017057 0.7291287382807567 1.3548555754167073 0.0018965587967424329 
0.7391786933946004 1.6962798700380748 0.5334924848676771 0.8046414171004582 
0.2680521368908351 -0.9463500815026541 0.0961622004924628 0.09835069137450768 
0.007515222957328301 -0.04649107087847789 -0.18407448823524544 0.6989843445398864 
0.2888435352366359 -0.05161232122759341 -0.5795081233805399 -1.3234167003088726 
-0.7081427664678299 -0.32980748994401704 -0.5527258591894982 -1.0062814027978748 
-0.6243553130260512 0.14997627531221586 -0.6170777113400652 -0.779580168167422 
-0.7444582017534088 1.1226469837757245 