-0.34334858766383664 -0.1247478431384152 -0.32549856548249406 -0.27373890400494894 
-0.06856084525251789 -0.020621523630240536 -0.0014952076321709067 0.08826896014797185 
-0.1741592732043751 -0.3014001875652329 0.10126950496497653 -0.2629637333316054 
-0.015599181040353285 0.11152160385531155 0.3279947995880627 -0.020481192286962505 
-0.2719945900840453 -0.23465499020341143 -0.06934149209456876 -0.21574776585077649 
-0.23635890406550347 -0.17236011092059267 -0.25501628742943033 -0.19308215202618853 
-0.011769743369736832 0.0887803774904595 -0.02370998973167328 0.16344704238489155 
0.15218889101506466 -0.264527242632856 -0.029357026833353433 -0.3169291300418595 
-0.020921702829463127 -0.3185150620713328 0.08682827348354043 0.23143840729125523 
-0.29450763032156185 -0.01794694501169466 -0.2795375457149324 -0.23785845278535686 
-0.2417599471257959 -0.22528875632060644 0.20081339152596803 0.15568181850708032 
-0.2876487971783497 -0.24490904841506148 0.05922455250578473 -0.2953714476237674 
0.040027631957889685 0.06200571435002978 -0.5368010269773645 0.03799573420584546 
-0.18007915366795438 -0.06322408153088387 0.08105088603097241 0.13745926799843997 
-0.1309932261924683 0.026005541290363678 -0.457689254431679 -0.35181092075303755 
-0.059066662206866176 -0.06745769421570413 0.05821068357300416 0.4233937639213246 
0.06901274534808405 0.15721234078853397 -0.13793377567513165 0.006970596175849766 
0.28328940632136224 -0.21062574102010584 0.440745615766883 0.05933126198866511 
-0.32754386897036436 -0.38249368725421884 -0.3600193825722125 -0.49074879063765825 
0.113170416468947 0.5078352143189181 -0.23656778385385363 -0.1768535646614814 
0.06844917448987567 -0.3219915254585831 -0.21331083066278297 0.22361773289410738 
0.2479289094937667 -0.04720060098774815 -0.030254672987845378 -0.22210528823641004 
-0.13281844357923167 -0.17206421399746183 -0.18988887085210587 0.07870191443215192 
-0.06287866492924009 -0.2832383913112249 -0.34835723820859044 0.11046362666690832 
0.03707336994762509 0.05187977460707093 -0.27722157859949154 0.02764013283975196 
-0.07272949011828124 -0.40490946666828526 -0.26988600148418923 -0.3636845927841658 
0.24648369378567747 0.060203357253669536 0.027565579668431876 0.06408969190618564 
-0.4450415007416295 -0.20260231082474875 0.1419464643664154 0.14988998293569766 
0.33754518517714477 -0.2740559386893327 -0.4673768348765675 -0.10471246933143916 
-0.17758232750100855 -0.47314316173270204 0.073747562978867 -0.11759766831061054 
0.2592908251611251 0.02371768096767739 0.2719981016770132 -0.48992768818484744 
-0.12190016162380798 -0.07597436563213861 0.42100343654714545 0.4445317974143369 
-0.6909122891624623 -0.5471908803727442 0.07005716804898897 0.05447247777490594 
-0.6715098379721012 -0.25445190572710447 -0.27936396163517574 -0.3623608571555562 
-0.44294194970997713 0.11681241458630684 -0.15769771085518414 0.08656884106769683 
0.18098921970163606 -0.1546386901759011 -0.29151254377579294 0.20147125219294398 
-0.03800292645194799 0.6394429367469142 1.2401859007460148 1.5228832713512022 
1.4014294844903776 0.2647006838653733 0.4328446845669086 0.3762291250210168 
0.15307439336127404 0.3106741688938865 0.2458755374451506 0.004251879895109369 
-0.20630860494339343 -0.49444860587107553 -0.7241148275076016 -0.7659618914393159 
0.017343276008570552 -0.3639653583924952 0.35369903877329134 0.39485099505477983 
-0.4782103703392815 -0.693282015118382 0.3503763656894281 0.30534807277804427 
0.48878194800770425 0.3253319701109461 -0.6115234644717936 -0.2698493698743982 
0.07039186353648717 0.12732587720537306 -0.8513822816214518 -0.03269488575760316 
-0.2348815681811035 -0.27687649069297715 -0.19908719382287904 0.03167177737431344 
-0.5304091969730849 -0.24045629124229964 -0.311406393424352 -0.09084438490720687 
-0.12498176105365806 0.22466323906515046 -0.2134453813143188 0.1521686845236413 
0.7990606869195082 0.9805316747555076 1.2956696321936507 0.24354926798676035 
0.07478203028731527 0.1551769247555755 0.1824323498763903 0.19226143374614937 
-0.0439216911339395 -0.05814489188241098 0.03680040732978731 -0.3736808022914043 
-0.36354591000794806 -0.5189363802493148 -0.07110258434269504 -0.340985863707304 
0.6560300919397242 0.17784465867443233 -0.32214312402917583 -0.202183815174715 
0.042904552099971675 -0.022228924107137168 -0.052405945900850244 0.18892678213229355 
-0.25123540940492023 0.2007383326434778 -0.05806707473052912 -0.3646151714139639 
0.6066365386150864 0.31102125558211585 -0.4076881053259597 -0.061450753701911505 
-0.055206621178780536 -0.009359100199914813 0.6484354655438219 0.677551443718445 
0.26719723465278744 0.13184926312520537 -0.5453994120062583 -0.1739331735341827 
-0.07592793366397126 -0.20367659261702634 0.2380840645222013 0.1624186762616573 
0.277701195686914 0.14168554395902605 -0.3967570505135866 -0.3618785241718231 
-0.05081755498271203 -0.4633334200709485 0.7462827544534468 0.3414948553423037 
-0.723130050776556 -0.23209272795069252 0.32727105411027346 -0.5371383839794416 
0.2700272494284619 0.7514673654973301 -0.16170762759047178 0.19876891430320529 
0.5005984405222037 0.3562025905226653 -0.3282249425596289 -0.22614294348534003 
-0.051818292950075846 -0.1123288533945146 -0.3188300543943598 -0.1647577248393436 
0.1780418304517027 0.014118878064964627 -0.28123320494906834 -0.10265135833694168 
-0.2617692238876557 -0.43396266383489096 0.22712196028079795 0.5129861517403748 
-0.11598833173488798 0.0379163734384526 0.39315942681881216 0.10416117415254456 
0.13101949273344343 0.10465505405615101 0.40852691085232706 -0.149397526687266 
0.4010759398179152 0.6131246159616253 -0.05290184064487264 -0.037573576080706474 
0.550892369801433 0.8124326535201114 0.43820993024682686 0.12016834651172675 
-0.08993545486564854 -0.34320161483205036 0.567316398903044 0.11169720439364374 
-0.5960055406883832 -0.6297717793137152 -0.11669406735885676 -0.7130734670660998 
-0.2511307430068648 0.11177125999329349 -0.3533826002450204 -0.7813129480866368 
0.25214194383950683 0.04921061418831532 -0.2799602295995935 0.07668874795951885 
0.14327373330001889 0.1568360353933985 -0.04553215064272033 -0.3957888403581192 
0.7135630815770527 0.5817415685608721 -0.2784068160763564 0.5908780663412271 
0.1750965238759787 -0.2779352747837717 0.4279334439426644 0.2710079668823125 
0.22994217709202927 -0.043124659459864156 -0.31722029160375015 -0.31979813631654824 
0.24305508924277186 0.1761394392688615 0.7578412967934895 0.32659799414151436 
0.49981719759460624 -0.1693441823695986 -0.23284818967430643 -0.4049278630561834 
0.09507704540402157 -0.8231793739122728 0.33775852667752243 0.32627330007422917 
-0.6490814135726818 0.1008384214761668 0.36281864921539 0.10390846885998153 
0.32530102071173056 0.8895682752232581 -0.09861366348502826 -0.1831454190914247 
0.6001267440943939 0.14847134928955558 -0.32536631769364444 -0.12370356075351513 
0.3161571094894967 0.21801694459999224 0.35319009391221673 0.2619925768404049 
0.06300113840498321 -0.22003419774084854 0.007974382165954705 0.2803635686994628 
0.1387827347463951 -0.15244372625949842 0.0897741920669656 0.04030840014008819 
0.3382341065140962 -0.06653435157441272 -0.2517984120479957 -0.5533270764375231 
0.17830886827502074 -0.008929309280677505 0.27482481134388337 0.4189017420406339 
0.23526352768810907 -0.3457884031904871 0.1615004462172392 0.11329830509050039 
-0.019876058032126945 0.19457578777866077 -0.38034532948639416 -0.4309632398702341 
0.006146032130142044 0.08343113314720053 0.22062650819897578 0.3821239037023902 
0.16072448058280744 -0.01156656233932335 0.11718150078040146 0.10432116261591494 
0.3896402548410513 0.06166794009243493 0.28856613754475313 0.5919896643165687 
-0.013347866102565808 -0.14333232322225178 -0.08850526684963919 -0.1709388130265428 
-0.2230607432002645 -0.1512284105127052 -0.013924159933276744 0.03292841473194815 
0.29493988027417706 -0.2724370625115301 -0.21322307145463246 -0.07390917800079487 
-0.11499604819225068 -0.18805718068225666 -0.15174044798129127 0.10790046457513931 
-0.4978310129771704 0.028321408834229015 -0.11218913862819431 -0.33104518905390085 
0.02248262780331616 -0.4507776321813667 -0.7509764934536856 -0.23077512909794792 
-0.48305676385116547 -0.14684010698960784 0.032762701761386424 -0.10376193564939175 
-0.28784111542561186 -0.036304599073052266 0.10589058534085387 -0.2899476784343685 
-0.033544978354788355 0.09605551945780115 -0.17946302701510125 -0.14253894246054485 
0.22381517024679332 -0.12303682974427287 0.31022223912495084 0.006738634212773179 
-0.36487053378048245 -0.36409926025730605 0.04375328730603294 0.16500036228745532 
-0.02774135520251722 -0.1417368279887502 0.10443389059719377 -0.06510803057201518 
0.25446726173352957 0.2512145420927549 -0.1250064711180851 -0.15623720474460515 
0.08637074560373349 0.21077651253163296 -9.447026905743995E-4 0.1493648127052684 
0.17598037579709921 0.47376046844514463 -0.04523760025455059 0.43848023559084637 
-0.01047647072185849 0.22266129956351483 0.4364616116579905 -0.013768014081683995 
0.17900162791448476 0.3033487185281678 0.18614454138893916 0.05548955445304292 
0.41168411761018464 0.397091588775194 0.22259862448692563 -0.10017081923789249 
0.06562761378384811 -0.01013341330692435 0.2539937575532494 0.13628515356649748 
-0.17106728900442608 0.09704172458543034 0.20047412916891094 -0.15256545840962393 
-0.2622019133497335 -0.1917830250788592 -0.06509369154644594 0.049220756479879266 
0.43442106464341906 0.08033571584319422 -0.17494548174695618 0.030224987430839116 
0.4085253252545345 -0.023735127438188185 -0.025097232905804744 0.07208853198439719 
0.057176924855693013 -0.1675085738794585 -0.17646997430274092 0.2682748411011506 
-0.04953971884993082 0.18040271837444183 0.25526687866791725 0.5218980423380891 
0.2212646320428356 -0.15111937581546503 -0.05839147927415478 -0.14489741509819706 
0.2625585799616149 -0.29217599764568797 -0.26316205747189003 -0.2895809887361591 
-0.17226993013385414 0.12865421185338619 0.07768030651348894 0.023557223246114433 
-0.11368659490646361 -0.2032659435863825 0.5095412134170738 0.1536945791812038 
-0.005709780771371823 0.028541355834296706 0.1730235011718139 -0.13333562328541407 
0.19352269500390937 0.4624810983320353 0.23044292733973898 0.33090825144900016 
0.3061503035091438 0.44926966865144674 -0.12441396888764174 -0.10942894076224807 
0.3482326267309317 0.002669372213924645 0.39732548293670955 0.3977393648783435 
0.20036427589340572 0.34964162769319185 0.027828106064552716 0.053445636942088315 
0.16166022141786937 -0.03192079301076387 0.1484568746818212 -0.18986348665759992 
-0.44358574876371415 0.036425180959229246 -0.2560245302692924 -0.0244783732018466 
0.20633978151501967 -0.22505033597458984 -0.29375545444323303 -0.41211228950732337 
-0.5818181919365888 -0.5371357380627391 -0.3881947549387698 0.08187990787521658 
0.20093644175507594 0.12195810734301481 0.06586373701502386 0.39509938409950596 
0.027922217124388374 0.12383568441634239 0.49716344726635237 0.5081246116795325 
0.10769407759235576 0.0863621249376571 0.34836893646480094 0.08684322922914994 
0.2862007429762212 0.3518608678411156 0.2372202169024257 0.009065422138047848 
0.41955577152059936 0.26779251609403243 0.19538140085181083 0.18886090611272346 
0.5701398662529138 0.4373283037100648 0.31802369298119987 0.05728247606343431 
-0.29471224851121275 -0.10001038882394897 0.4008794874006652 -0.09552012428727515 
0.006210231559530299 0.04038542289635143 -0.147715966630129 -0.20282970198499173 
-0.1366672412879588 -0.16778360970548947 0.4611089025510996 0.22252461008683336 
-0.38078888357008667 0.11889596543670537 -0.28163957772855275 0.1627695121279237 
0.13400859411502627 -0.030234873714248496 0.3064569744365393 -0.01249149739445173 
-0.05783439336141836 0.05235670635217315 0.22039461219174383 -0.162298141924681 
0.12159987974593969 0.3874046350272023 0.09428653489506306 0.13963932707857935 
0.2241973005524949 -0.11436849901002819 0.22913035696767609 0.31859233473001164 
-0.0580310942402842 0.05776855309397634 0.42775512159848694 0.3057065266200127 
-0.5849227859797506 0.1432690858128629 -0.02725402239978704 0.22542678846505884 
0.012832163661460253 -0.2901703524153314 0.45894414199026096 -0.13094125256449368 
0.024048346211676137 0.29053370828702296 0.2736904265696244 0.3907083410122282 
0.35315960298870286 0.7090735503258596 0.7036120863882589 0.666304602727788 
0.4495137869642727 0.20503358253936577 0.7783068389774499 -0.012836648901570461 
-0.028643786838506855 -0.10176766554956176 -0.6300001846543769 0.21353546367184878 
0.3344337326002379 0.5941248500992865 0.31887817804432944 0.10579053614808216 
0.05047094868783562 -0.24486861230880905 0.5445435131289535 -0.2189820441347512 
-0.22002867636232085 0.02674162607794848 0.10160067023358683 -0.4969360823689326 
-0.32168875465897045 -0.3024126863591331 -0.02454369396798364 -0.1205952065732434 
-0.09284960851052325 0.3498191372486071 0.13401090669251542 -0.04940201095273492 
0.3686517688706719 0.17358833850636424 0.1549492773988975 -0.22007925180885546 
0.5070528267313495 0.24270114010275734 0.06928184421990288 -0.041075824341366904 
0.17537302639921715 -0.09501371553980073 0.16300354032968392 0.2807389140280822 
-0.27902277307441953 0.0429775707389253 -0.3674507672302673 -0.5233643781489552 
-0.19599498798520296 -0.4282866807363645 -0.18045238370529015 -0.21401299291564818 
-0.4496180626364098 0.1411087528713426 -0.2269717996458344 -0.5289227913043141 
-0.00815623576415864 -0.09942244883815937 0.13599031887185092 0.1423226889829455 
-0.5112731758533207 0.188968588169926 -0.0571693535105952 -0.0991787919907884 
0.1385455019553956 0.6864261351488484 -0.10087731740103706 -0.10590764773658799 
0.31092063931465147 0.23024684574512191 -0.14155635938495612 -0.1596137670613309 
-0.11460268623685235 0.3357581108047344 0.03555582576893341 0.15862570152632735 
-0.19586058990875382 0.1473977768641152 0.19148092569281688 0.10499618464528392 
0.060098925822744835 0.16728687073439202 0.31854064159162615 0.20982264479734766 
0.06450433154780896 0.24534839695084065 -0.04772806000457643 -0.03147501800077041 
0.03578764482520425 -0.12753863668375442 -0.013893223853870072 -0.05666929065540261 
-0.021570814133162194 0.017143145758412866 0.20584368578843534 0.19785307860155857 
0.1579783136957107 -0.17164108966401578 0.13544753693889633 -0.13265800169795092 
0.18585028032355774 0.3573696839950297 -0.03240637364039826 -0.0705363860142309 
0.3895911406917895 -0.0391326019061139 0.3666842760023732 0.08004998766872774 
0.30679664267939605 0.2131756362120607 0.07874975379767678 0.5322136075839037 
0.021556935498565844 0.1627625612270393 -0.3972901399351199 -0.22748079213253658 
-0.19301017604051596 -0.17395690270049086 -0.31173679427360895 -0.1949012250045722 
0.17044395293567563 -0.11748532798709731 0.06211093891104501 -0.12829222258863832 
0.027585206750997616 -0.1778693144165909 0.22688615224223901 0.3474141192093386 
-0.11909469360787175 -0.05430273439052334 -0.10003450042784029 -0.39046206841399483 
0.17979406013423183 -0.12389181819800378 -0.31529871510665824 0.07633148315341114 
-0.4445611889511111 0.004564884767446813 -0.37018375409398163 -0.003291968905084438 
0.2812604729017961 -0.3027678117766867 0.029949578406110722 -0.048082484683042506 
-0.029218707397935785 -0.10267497746405106 0.13572163708670693 -0.10336757121075762 
0.15264615113930766 -0.08029414757630028 -0.3820700966338645 -0.014071588201204995 
-0.09553906562378352 -0.07936578041807266 -0.1083275903422797 0.07193793918588341 
-0.20807398428983742 -0.30354911895076814 -0.4963792730688965 -0.22963434292216478 
0.028474930719417185 -0.07209999758801508 -0.13213871986996958 -0.45398114118189176 
-0.21606419633884086 -0.24643186099269423 0.34108674476150314 -9.963058874099522E-4 
0.04137744212052437 0.3101953884706188 0.3171244835794699 0.41604054665486984 
0.5204879133290902 0.4036156835540723 0.6264807063360348 0.024794282175159055 
0.47835488116418357 0.4699371727326891 -0.31175209340408444 0.3488265044279295 
0.3468213544156102 0.8748356570305629 0.513800417990856 0.47895383916561785 
-0.018172338433601436 -0.3578574317539838 0.6279171818665792 -0.04463705732214538 
-0.6161420122593102 -0.47288575706244196 -0.1787657002354582 -0.5810932361424287 
-0.1734985979581171 -0.38669220070149474 0.06459263860325283 -0.6184680107158104 
0.1453318489686915 0.362197748899651 -0.036974292088950596 0.18131260389131315 
0.24570727634443337 0.19291739115519607 0.2168870512993029 -9.542973565654282E-4 
0.057058572493055924 0.073845213417826 0.06293944461319899 0.37124672694012484 
0.2703418527243315 -0.10452288789326726 -0.00513077203404215 -0.09688599341844244 
0.2454537395822276 -0.04365030928999201 0.024363076264655805 -0.13447664980918053 
0.14950645750194452 0.33965631621973597 0.41519308921939013 0.06389593352626848 
0.4605551563576882 0.1815483647345734 -0.12080634894053081 -0.13671196186625603 
0.1319871400097706 -0.10455598940364204 0.08665834277690093 0.15946289388887872 
-0.15857076632935152 0.09859135416932228 0.017844034796073122 0.01742239804917932 
0.2802326375607594 0.10329189604312085 0.16382366673732082 -0.08934767560903893 
0.4788364287766561 0.09027742813891446 0.06622677179895468 0.012466136896381099 
0.07697136171491252 -0.213217044802693 -0.16717377736018937 -0.2045223526588988 
-0.01635979288241197 0.12760255301857784 -0.6756920874906419 -0.09546885142840496 
-0.02584037558249804 -0.2383942150098306 -0.055954099282904214 -0.021165219551711287 
-0.377662322530467 -0.21611398258022146 0.15051149425347116 0.12717456016438594 
-0.021276281839665973 0.3582170104448184 -0.11243057539549725 0.06349327153748079 
0.7655909302422759 0.7787395811345307 0.652279953152173 -0.027078577001852303 
0.2821459288432719 0.4804932984218623 0.10489000884223108 0.14435451911363495 
-0.19197276155958135 -0.05344690127243857 0.32349839387961465 -0.21058293411196327 
-0.5314697390006524 -0.3461184617872485 -0.14970944378652157 -0.5371799021484565 
-0.009418611381805175 -0.044825760161765024 -0.09543054520229591 -0.5987030801329257 
-0.007968508241470423 0.13631630938480707 0.08293510578474744 0.07384703524874324 
-0.5949871523297547 0.1323081626139949 -0.3472975702035814 -0.11731382654917297 
-0.12165637661568592 0.21618148818662627 -0.253474422513117 0.024901501898764184 
-0.40693348841087307 -0.24076080552502818 -0.12379484132714764 0.28089738439366213 
0.012027812622580358 -0.0489713702444187 -0.6074190979201105 -0.5017061844805679 
-0.20614135422145133 -0.034441602516734164 0.42289563071903774 0.7432449551714642 
0.3523822586359797 -0.3721659539268516 -0.5164013728331621 -0.7120799112980419 
0.21453292949914027 -0.2785234913249527 0.3628379209664193 0.35869907483025537 
-0.765208287077249 -0.26991554954638064 -0.38364268833640297 -0.3067428643720863 
-0.09473246227551523 0.3682624929769175 0.0792573246843691 0.23254022298199573 
0.052053180201322 -0.09038664753113446 0.07139561752968397 9.055256298083459E-4 
-0.0526538307610596 -0.36975064666359797 -0.16624921456358296 -0.21437840107509717 
0.19366491350429496 -0.25456978394698815 0.2840784562075093 -0.0034078417484437636 
-0.009039747278534396 -0.2988251441406913 -0.07537672002119887 -0.302790163869222 
0.14800160718940192 0.23236044318353782 0.1081214752207197 -0.12163788523082116 
-0.04417652568743203 -0.46788044867612677 -0.21298007213712064 -0.7151149875517564 
-0.2771415255445177 0.12794729293772114 -0.19194985168958578 -0.40417092781680447 
-0.2820542525938025 -0.41505183364224335 0.12801198774129854 -0.056340041999032794 
-0.008992508521822562 0.0256945609652927 -0.19106768838261212 -0.29068454164923524 
-0.0755975528656401 -0.1724639126295951 0.3241335528238779 0.11545509971662549 
0.09483428312924297 -0.28099940277026664 0.2652249859778708 -0.5506673734669458 
-0.01758384260237355 0.015550391021274137 -0.3547093600343895 0.012153989997194407 
-0.25403275298245637 -0.01838342031855454 -0.019196513032997273 -0.12193669913684302 
0.33337164420013904 -0.29691554240206985 -0.25887124756311386 -0.2671840589312057 
0.2784716537430284 0.08666512361238558 0.0872227180052012 0.7628488045938544 
0.7101637246455677 0.6342639688277413 0.3162696130551368 0.1750167464305611 
0.4092830801158738 -0.07225274988326795 -0.15479215389734782 0.4761187277457965 
-0.45922086524155736 -0.06442959006335072 0.35592120822904555 0.42340603400296384 
0.3787469435639378 0.4722266405933169 0.19793693267289914 -0.04301515580731211 
0.04042175724217735 -0.18843379586979414 -0.6248367208861281 -0.2837282822838788 
-0.02499616411714134 -0.4268105822854948 -0.3347738506118269 -0.18433638411029138 
0.0055299874030304685 -0.6313756617452699 0.4443131128595179 0.3127361426890146 
-0.6171272355961838 -0.07567266977382259 0.06652486409090484 -0.030173654060221086 
0.29066510908703597 0.01833943616866794 0.3401104933266705 -0.3753433254146426 
-0.18928818802104916 0.3494086923359378 0.422366805412135 0.3131667241563249 
0.44052767786663866 0.6176205556636674 0.8206566421624221 1.0887339412668804 
0.538940038047623 0.12394770324332291 1.0616371884261808 0.34121978407691067 
-0.006652223550526522 -0.18583172315281465 -0.8393158983153938 0.5481554496948681 
0.8377141307428165 1.146471686490549 0.39060466598273996 0.24492477113035793 
-0.03585667087856544 -0.2925507919798838 0.5980779252898337 0.04991365984432998 
-0.08766159355688537 -0.1093120826838828 0.045312268343582526 -0.49472551798154074 
-0.7938656887075445 -0.32412005634085606 -0.16807857057161504 -0.11847771824267253 
-0.057782277479972256 0.02560352198112873 -0.2331405807276533 0.19913521243701707 
0.38691115545844873 0.22876571469806561 -0.11081027761201824 -0.053463757148581086 
0.14942878664192485 0.08775765675321946 0.07345476867625997 0.11919547878882328 
0.2588836163941053 -0.08604978854428649 0.18703250388940978 0.18766707954153902 
0.36274715315421757 -0.16051589783694886 0.25543955424664005 -0.15088855694336212 
-0.151718477297391 0.16443460960323922 0.03354211899057031 -0.34894508313721406 
-0.017723229373222314 0.2777167368050262 -0.05911317528278015 -0.24104312698063 
-0.3415348992118971 -0.24942373061131504 -0.1706578767968609 -0.14015956006105965 
-0.0015556609293423118 -0.11657482238100667 0.43330341378270143 0.3170023652168524 
0.004006508928715781 0.28137929953809415 0.09856961026035696 0.14791361716041657 
0.34673733957678987 0.4040763691013785 -0.3320318728886233 -0.2681706486912994 
0.3674198991390847 0.14764072058928418 0.530511142817399 0.30838806396562773 
0.4291627985191398 0.26050668361069673 -0.07189278281574714 0.24002325916551862 
0.5062622591246212 -0.03604169036422282 0.19255254211858122 0.15210959227734758 
-0.3777468209535074 -0.25835067556676394 -0.4077339656372676 -0.41083477327115087 
0.3535242181828542 0.1764771082590351 -0.3847520621201984 -0.17253182828859895 
-0.21354341841089086 -0.2495287593770901 -0.13727234272725453 0.029872948176446267 
0.052510741843774744 -0.008428984688129169 0.03622196293070362 0.0064391378312367515 
0.11725598002672448 -0.18625529071063235 -0.04726770403676961 0.2964974955911815 
-0.03032556681593659 0.5175527474537234 0.034759826229213746 -0.19048393411092665 
0.4846896543197817 0.47586514945886405 0.2019098574849215 0.18058845718773056 
0.1473872273887135 0.28222025575915777 0.17187674701686023 -0.11673140422613261 
0.11747275066997319 0.2657720141174523 -0.03531182708549557 0.2190231174775983 
0.08958952901405214 0.0683818089040465 0.13132662163784772 0.18640430689875248 
0.00214025028335554 0.1926729104967358 0.2739214135059927 -0.2680835877507385 
0.34794097784794453 -0.02720381956114646 0.1923474530032956 0.31753573702323146 
0.010189000428292662 0.24229702419257804 0.5234776290258092 0.4329949413481299 
0.43047319790411026 -0.10780863917021952 0.3764856736661811 0.0935910609078568 
0.293428692051296 0.0031774590030231656 0.05018037135732756 0.25708978810706834 
0.1270166157007333 0.061770407963071546 -0.06757639283372835 0.15714010280927285 
0.2039231144481013 0.02230963917333986 -0.16063298355168373 -0.1932704896599401 
0.10505834700815934 0.2982252686291653 0.188149087480687 0.07686802071445974 
-0.4405209172940343 -0.23677389657022163 -0.0863576440302587 -0.21155459312353672 
-0.04875752135759002 -0.06125692129995447 0.1829148151548118 -0.14538615043954142 
0.1909137998928266 -0.2500410881853091 0.07011712931993974 0.0012279513476259507 
-0.4546895743865513 0.5516304153546403 -0.15657824471549583 0.16922610471926042 
-0.4811338231382968 -0.17236150311150938 0.07418712223853711 -0.4899759888364321 
-0.6608834323177672 -0.23439124935117508 -0.9755491556261735 0.05529999488757842 
0.15931011350571664 0.06508040845067403 -0.11109748168359222 0.07812226702981144 
-0.21312084686676822 0.0534243139657361 0.25332504858794996 -0.05057818373006004 
0.014789172124384417 -0.08313513238941468 0.04435994178933086 -0.06348247404042039 
-0.37074206152593375 0.1243923602225466 0.038455175679356995 -0.4695139077809996 
-0.25759126456481507 0.059859507470374586 -0.8818348772753525 -0.3905654680250512 
-0.11272156471688521 0.148049670313468 0.36284206668064894 0.02646580189641903 
-0.10520189163317183 -0.29635647724879227 0.17133999559257973 -0.013106925067363285 
0.3584173409794322 0.23232848062012446 0.1574116193343739 0.24986502592874282 
0.7442461022456462 0.7954487870603669 0.3732382137336613 0.3934846957639374 
0.7901323578144365 0.4382489610695634 0.01610232043787736 0.064035663085462 
-0.488888677004192 0.45982003815351685 0.740365432349509 1.3592423696827691 
0.3261130063187401 0.7220265573743637 -0.5002147940035102 -0.49582796070408663 
1.0189081365257822 0.027649238149094334 -0.20477660584248408 -0.35776551736092765 
0.0298648164595171 -0.6031604400521124 -0.5831813459346477 -0.1898093733639896 
0.1258271681574831 -0.78818772957026 0.15359816134170387 -0.04135784741510906 
-0.024565344800814095 0.082807622634009 -0.5451728112339861 -0.18108669283449 
0.24316685327404974 0.04600845045738908 -0.11747215692917255 -0.3106271166537822 
-0.44034685693808145 -0.04759216826582305 0.08053951286610052 0.03507843041546481 
0.10589241754021163 -0.06681466890996833 0.031105961450231645 0.3688863345792981 
-0.04702924504544608 0.12554324222545957 -0.03980962847901116 0.6236600926903344 
0.9829123801964242 0.6012643337703112 0.8371983404015199 0.06357681194701406 
0.5699451967289224 0.11658960030760389 0.33825748269115435 0.02856673752341052 
0.15571490568686425 -0.11553378955610318 0.19704543406953437 -0.23355860208446771 
-0.4032733516229224 -0.7202381348137094 0.07480695176768822 -0.6815211261240164 
0.004754642791282964 -0.12123874200718139 0.0017141565057464839 -0.5299908380350962 
-0.020879511367148065 0.2744111862336334 -0.13441374139233542 -0.05691928418796787 
0.32142169980235685 0.3541837566082965 0.33634604114891437 0.1850764196381134 
-0.03509511708957238 -0.10121524290334953 -0.1675708111764563 0.09685845372034778 
-0.13871969402631884 0.3443828654626214 -0.18574803936304646 -0.13472502414938967 
-0.06913759735525404 -0.06100685315613966 -0.21451511348616759 0.058691391389064096 
0.14502126562600792 -0.3037061205165148 -0.45578467145699564 -0.018279106380832744 
-0.2420225869913636 -0.021204663224635628 -0.16800137213858365 -0.07233453954113563 
-0.10139402438243363 -0.03429428183512801 0.2106324261718256 -1.561755199347336E-4 
0.03696007606134379 0.03943714161142051 -0.3034851207181146 0.03882477978854478 
-0.01268772648863952 0.26096674716154555 0.11847522266579678 0.24162107004727196 
-0.14489544877602983 0.15044741730053895 0.3848863953841504 0.2578879819209802 
0.37471742385013695 0.3970951706781314 -0.03469156003394183 0.026888536169103774 
0.3206382255951583 0.14477622272872973 0.06825325315609135 0.37941671441101316 
-0.09763442872195417 -0.33966001248080413 0.2935723126896037 0.17829458250691152 
0.383718074805268 -0.3887699632442541 -0.23876058408346196 -0.6971344215110481 
0.37628942150209793 -0.06649517282451556 0.2682843718418748 0.5743647718623318 
0.13625168889293052 -0.011512933277858508 0.34894486396272806 -0.004002036968431399 
0.1809891909707829 0.1875801859862941 0.032004642680934114 0.047400415891605964 
0.4517900781144237 -0.041833204623478615 0.060734613990166594 0.3274437670814233 
-0.059535171439817014 -0.07548013339888024 0.3995239495736594 -0.0809826123306625 
0.22839873265343066 0.4037799346270678 0.22474091675169897 0.47708990117913985 
0.5673229895441296 -0.05976875564453678 0.14393632912323714 0.09032320083622486 
0.2017725803263886 0.1960001639701066 0.33786806447834633 0.1381390741351561 
-0.3225493724783271 -0.31385784240668885 -0.1885384399727102 0.11003740143735409 
0.265369107245041 0.03623388273784168 0.10003575832429391 -0.3474051032856456 
0.019177391424504923 0.13612784167875228 0.23083853347832514 0.4021332990585568 
0.06600499044709426 0.5038146052899451 0.340581663191336 0.10263901904285307 
0.3966437415837277 0.06256328914596619 0.4162399304616815 0.44810839239794487 
-0.19611742081459935 0.06171584432482802 -0.12914962112409287 0.19075074760513794 
0.33955421597975394 -0.03727051639010098 -0.03553791162931117 0.33894336607816483 
-0.08714220744343691 -0.03130664164274972 0.023174784802427673 -0.2811149917834129 
-0.01254990772392397 0.4509682043643347 -0.003570128141314323 -0.19221649278444777 
0.14686311895582918 0.1429127377685865 -0.032965587544402736 -0.10065447257146663 
-0.01703836884915754 -0.10987603567117017 -0.344831278606114 -0.045925322334577474 
0.16126818902967982 0.018932799649802455 -0.13893058951051834 0.13012351991233911 
0.012170710549329613 -0.16395593169091716 -0.18554459410762192 -0.25848903759577985 
0.05390395277304214 -0.012233127982430186 -0.3120431470883475 0.2995752058153659 
0.2718856402911922 0.10689420353953528 0.6625473285519851 -0.18742431816075333 
-0.16949473351800728 0.1939165635059202 -0.1428073503244528 0.05707499849633246 
0.17734635494430992 0.3261376659956998 -0.21885337056822185 0.19137572247301846 
-0.028305746329678215 -0.1445220819031394 -0.044491055709517745 0.1907711491894105 
0.028384430477923772 0.23931155118717762 0.07760067274607377 -0.06145377451385732 
0.1793604445694256 -0.22955661331297353 0.5223032485869058 -0.029293729103846828 
-0.5357178934764725 -0.29909120864383687 0.13924467400428145 0.31848906319766307 
-0.0593071678719856 -0.0023829304763576787 0.032675241066360515 -0.2147535955612674 
-0.0458381495251647 0.19405975720135354 -0.528438485232937 -0.26125020279011063 
-0.7399077186516312 -0.14449515180520622 -0.5436361269771235 0.027046374174243767 
-0.4158827065996251 -0.338122626936025 -0.23589296617246702 0.5030970509596016 
0.6273754759458656 0.007830968599067453 -0.3152369502771147 -0.7386826597267532 
0.030078822483090597 9.427478708281134E-4 0.28969496809320644 -0.07499760754708386 
-0.21311901594331548 -0.22353619811399655 -0.3007696076703756 0.13131890737683982 
-0.07601097171978616 0.09837959901460233 0.463057596281676 0.3821547613660564 
-0.2956027429155577 0.0655302465334703 0.24069316447418457 -0.058311964110891804 
0.05605370106113588 -0.046006321343651034 -0.3273938344223495 -0.30142224962925124 
-0.37620647835163856 0.03442729129532705 0.04501734326635984 -0.16178104721203998 
-0.4039204891973931 -0.1371347780800423 -0.49074488723058146 0.10527259912735462 
0.31448649005945334 0.18509210250073008 -0.28682900875725287 0.23796469052711927 
-0.5370839609326115 -0.4746125582329257 -0.23590260010903094 -0.08924919530802339 
0.4632230697594459 0.8042102483608191 0.7757616559278976 -0.24815864189118006 
-0.4461854860938479 -0.8573575633224367 -0.13317319376666048 -0.29862481169062155 
0.6665731630594713 0.4085613564902721 -0.6155397902472334 -0.5118363950205124 
0.019163938879496852 -0.38493759993151283 0.06643606868955985 0.21453055063667148 
0.07555621846427796 -0.1034278345090024 0.0809928729074203 0.02741650659024082 
-0.013627991516997355 0.007077003232305551 -0.2054689073412278 0.0984430494729794 
-0.358455661109409 -0.031592444382574546 0.018880346417407864 -0.28828994849453504 
-0.08001039442688657 0.019833947746158553 -0.2103945386229514 0.2448908342042971 
0.006911906723584014 0.11473885923702914 0.22917569570755664 0.06130873061667631 
-0.15597826764780362 0.20937343382480156 0.1411257622594523 -0.12277485176329535 
0.3234006952609388 0.7072795478986453 0.6809772797634843 0.4395367884438576 
0.9649556199644824 0.025497581700508153 -0.2954038054825152 0.057083448991230024 
0.23593314753903358 -0.1204384914114256 0.058130928825607484 -0.07759674184624277 
-0.2821036066172831 -0.2431555152502658 0.23435816118133249 -0.39172745449555585 
0.3083078510795134 0.35111254814139164 -0.1067064047210365 -0.10574413255890772 
-0.1476706085427181 -0.0197346114624201 -0.2553068356144835 -0.28554783204334155 
0.1689674639509624 0.03173501611116608 0.23796191835608224 -0.03244037086694768 
-0.23891413781790932 0.11939575090570823 0.029404842894333913 0.16191971247214923 
-0.09218110721277929 0.026429992806888954 0.03231354957392025 -0.031017484217920485 
0.1930074449272367 0.33137989999302186 -0.4111316160406674 -0.09583908464944658 
-0.40247297602643667 -0.43844129658750347 -0.37819524237441654 -0.4874690763413298 
-0.2972150353753496 -0.4248145865197243 -0.47419181384730513 -0.15107858335672003 
-0.23082972988772693 -0.13716490175979223 -0.19189279707862264 -0.34530705733926287 
0.12991551631928736 0.1651086015822919 -0.35185614429020234 0.2264843101844603 
0.12701061510579073 -0.29453262610020176 0.20212667409009727 0.13775693684198026 
-0.1619515729687216 0.05797195090844633 -0.0474120192133582 0.19818636782941912 
0.11732279697936214 -0.23775331421359513 -0.27859291867735414 -0.23783542245995773 
-0.10377131622605819 -0.21440145004158281 -0.11694888769849669 -0.3809967933306842 
-0.013246579031556379 0.25305389480013923 -0.04430307445551534 -0.07399735086217711 
-0.3462404192285878 -0.35503471613644394 -0.027884050132955106 0.3203508837751357 
0.17892010804673686 0.3043173724116915 -0.2681349645922908 -0.36568948203934654 
-0.07345133117276402 -0.457432420148222 0.15720923840422055 0.09432853374589187 
-0.4351522196173722 -0.4544497025785526 -0.2016601893720996 -0.45790414571226107 
0.2690484676267328 -0.05096213191426507 -0.010047592801426695 -0.12005301574123425 
-0.5276774841736294 -0.015582677910227025 -0.0885217838991297 -0.2311597964387081 
-0.11126578550266432 0.3062349120934151 -0.3297434250123459 -0.21125288314518245 
0.08006829735101391 0.03426380793289989 -0.21036634838372656 -0.24520831574384416 
0.11353158776035499 -0.12901149202746548 -0.07660585929541656 0.3841892558388964 
-0.13770035827504531 0.11584508673851279 0.13695735721503363 0.24807184675281937 
0.0545683561459081 0.1860169729216964 0.0841348540862496 0.2182526772103344 
0.13981752708075407 -0.07936152247996428 0.17873181657829096 0.1977853994821539 
-0.1522066704745706 -0.16133811970206868 0.08496433562087582 0.5129073383352709 
0.5648781309176134 0.5734479307686087 0.7236141742534301 -0.024587392053665294 
0.2354930494771028 -0.08227965923043801 0.31276838046067945 -0.1802505516801701 
0.07474122426488897 0.32790433499523247 -0.12695791730102365 -0.1554814542492375 
0.11183012983927945 0.21136075579737534 0.016881679761203614 0.09430003888345684 
0.17675205069673944 0.24417910265150447 0.09578642981008371 0.16031833901297526 
-0.004509763596076524 -0.1401604004290554 0.24271249241622875 0.08530679363995346 
-0.3135895839702239 0.4102678701090702 -0.16630526185750474 -0.25075258971165876 
0.1883779544884906 0.019373654904237453 -0.2802919014543916 0.00391564920294741 
-0.07818712405185971 0.16619388513107244 0.16141298596170303 -0.020954871749142706 
0.21234058686921017 0.32375846859031726 0.04085663555575657 0.02326012286484147 
0.4624894758859226 0.3447831294158329 0.21962678377623576 0.6975233584949898 
0.655318643036935 0.0812826009909939 -0.1438335478676987 0.23261523357972758 
0.0413378968685312 0.05748230568834318 0.38139620331639223 -0.13350986831991385 
-0.02980234160714012 -0.08491842467773146 -0.08040050953888224 0.07340707448541604 
-0.024065752839033148 -0.07946739658648776 0.24022584152600948 -0.06342106920967373 
0.1916738250457492 0.3915414935971543 0.19496687529286613 -0.2655716149302203 
0.18978847508313176 -0.06943918675340112 0.15195206774138809 -0.008510050889468795 
0.038166973806159396 0.04498460665017011 0.1585128569559385 -0.10312362533346532 
-0.004994278540087354 0.10474089468662938 -0.0464206890076241 0.13781939139127186 
0.19689960716754754 0.633448013309281 0.5309227716532003 0.17409012194924825 
-0.17108477731069804 -0.05221815983728356 0.4154954368796404 0.27980696083901735 
0.09998238597608052 -0.12916866973284707 0.22580778777729837 -0.0775916227627821 
-0.05393004643054859 -0.1300392566252287 0.10072265460533748 0.11461554419874032 
0.4285738849450461 0.29984066104549717 -0.38235434787071615 -0.44100527982878074 
0.07671018859095649 -0.06381058065818161 -0.10721274760650486 0.36315927868491893 
-0.3030856059552911 0.23495058276465933 0.3793926757741435 0.3229956094067346 
-0.02744325667577703 -0.15293776656584276 0.005673128598250683 -0.3299508142185606 
-0.3975806600128309 -0.2792275217384893 -0.0024872254715323015 -0.10587822294790183 
-0.18229533186536376 -0.04589949282057976 -3.8992208153416956E-4 -0.4124847452901235 
-0.11089117329106776 0.009392864097648562 0.07005027860448294 0.5516228993296579 
0.17186474434191493 0.18152536059433497 -0.39793969288953673 -0.09467903167044198 
-0.01114471077046135 -0.34923260697368314 -0.0806908214944605 0.3008253654967477 
-0.19043752674388034 -0.2517024078400506 0.233716159916997 0.28195818346008533 
0.08935360431004666 0.21691866501415338 0.13747978921097317 -0.29466821029669676 
0.107298653679064 -0.2583075751925343 -0.48553063004743796 -0.5173494929763536 
0.2533000029866832 -0.27017520840783366 -0.28318205851722955 0.1184220941364786 
-0.18981362158947834 -0.342859850696233 0.09588568288351278 0.39564785745071185 
0.1003857337782802 0.2727033674482955 -0.1576973461813412 -0.03989715540719344 
0.08512050251436101 -0.37118556737198427 0.7436969105987877 -0.16715026333795707 
-0.6445672136434725 0.1420243862983474 0.5257796892347922 -0.40124841450916177 
-0.060395473735998566 0.36378668673301207 -0.6322661953161703 0.1795703561015145 
0.1759825022407647 -0.21691029881940732 0.03573978272804366 -0.30937962646298567 
-1.1512359346407228 -0.4644218255441779 -0.7793815476373119 -0.16277499613565707 
-0.05560396536622408 0.26224495741535514 -0.45471283723278644 -0.04184597102905019 
0.1746745681507715 -0.14562646618672276 0.342826534658257 0.370572347633144 
-0.5522744122306902 -0.11534712527223662 0.5859416322635853 0.013945564150506379 
-0.0620905198481117 0.0019169884948637538 -0.5627789224755068 -0.4217165169373013 
0.084334123560924 -0.11910324313603553 0.45060832793814476 0.07917303483989827 
-0.17664166505403278 -0.08285169760888494 0.038531679754262166 -0.11478251262665005 
0.4729372212424097 -0.07080948370356392 -0.12618945402563922 -0.06278573292849604 
0.20163257455377084 -0.12133503029308801 -0.1411072419009194 0.3845917542724448 
-0.5566956676045249 -0.2006572645218231 -0.4002789997065818 -0.26828791981626376 
-0.38326065014093963 -0.37631329409218867 -0.4639597024320554 -0.11804865373284472 
0.1857855564056335 -0.07332923507908348 -0.07621129332498724 -0.49167339803491766 
-0.05533100464539913 -0.033654696891242224 0.20003736442732628 0.13716557685105923 
-0.23911971970487497 0.1416459729536053 0.07021529332519173 -0.1603582165581793 
0.39954170471965933 0.19979158879812725 0.21167120984756388 0.22072029446595998 
0.002772705689102885 0.3379739758742626 0.15007893938032482 -0.11241201335722548 
0.31020048103988956 0.26927490447633234 -0.021254499637108997 0.0377013662922895 
0.2489490314638645 0.24875303155374942 -0.011130020226958703 0.07891472412318999 
0.1327190661487475 0.1152682821819501 0.25437450539644735 0.4008877921219974 
0.023091145577590663 -0.39776597252333823 0.06811861460101162 -0.2067796277596932 
0.18526733576531007 0.10754850653105008 0.46995983112846496 0.13692071139574996 
-0.21050761109416635 0.06973980012505342 0.35239954061173606 0.4133163905712492 
0.15677199909029507 0.39528116495146737 0.1266956621099859 0.04982823332341309 
0.3128479642975233 0.22124653566591934 0.3592115476948203 0.2972973404721334 
-0.12281467114685228 0.24334165845734967 0.18799159406841498 -0.1237247168036629 
0.19562241238075193 -0.08493579893487141 -0.18213686761263706 0.3405139025646006 
0.2647383280526609 0.15998018019667298 0.6516168496433304 0.3105038672172857 
-0.14164754278841504 -0.10822581293957169 -0.2988841587263445 -0.08170508243374784 
-0.10636484744176258 -0.04158947243548874 -0.16011852581701352 -0.05592098625267252 
-0.25590074724266765 -0.08493438130271275 -0.18689660113535392 -0.4193205540770546 
-0.7820183328815138 -0.48091784067477594 -0.39993124889510095 -0.4934602445322074 
-0.685976315298219 -0.6655233306442416 0.04867223377277131 -0.06324878414841102 
0.09150943463862092 -0.2879556061092825 -0.8967680992004885 -1.0875463856294776 
-0.1990892236170953 -0.09614847197960044 0.5424130085435293 0.4684947345097642 
-0.7447622087364189 -0.23084210448376155 0.17327817329328163 0.2681972008064412 
0.4685904829943585 0.46062298393012197 0.291665599816175 0.41861154829158104 
-0.02004111375527361 0.34844670103988995 0.2792235223479513 0.10321146488545256 
0.29075089152778855 0.15129076952924467 -0.13698198705527342 0.06005818119852381 
0.02587281332556869 0.15229330316215997 0.06413812983782069 0.06684230154327876 
-0.1927709529563313 -0.08451876351553197 -0.3487794525419101 -0.3906915586828014 
0.12546179692690343 0.012154650838957415 -0.29271332539039147 -0.09998892623653008 
-0.20806051373123494 -0.29885231912880655 -0.2551990608843194 -0.35990663575231074 
0.0475018460610949 0.23767661862058004 0.11499305344818149 -0.39773201838548816 
-0.3689283501881322 -0.8380790737176981 -0.31569128368802907 -0.2893302735057003 
0.26366159946297074 0.19957759255266763 -0.3884127777232192 -0.36887301882809614 
-0.13257490228981772 0.10444495995832885 0.31409203099327165 0.529785862181501 
0.12788722201758265 0.0026082375803330856 0.04494020927421626 0.3683848991888621 
-0.2628097186233393 0.17680849758425332 0.29006404180588063 -0.15200925759771983 
0.3673743054103013 -0.028496551505806527 0.12871826789553387 0.19862387616315158 
0.17105559924192099 0.1537111658660038 0.35131688797701527 0.1829912675084665 
-0.045227030681348965 0.14710534234744313 0.1499148295010132 -0.20724902069780485 
0.1824867331884879 -0.30112228116758577 -0.07269545757727637 -0.19100806822976948 
-0.10945479893409915 0.12842672862133214 0.3988940430216235 -0.31672544381038115 
0.20155078360499568 0.2283469480889486 -0.2143504975765764 -0.2431207817371447 
0.03950198235612878 -0.21329739922107965 0.14815450128396274 0.22474213568853682 
-0.08132313841287782 0.04748924493500922 0.5356013826769366 0.25186248359683294 
0.3564169984079424 0.16460445594497072 0.2343716895717241 0.2606846531270365 
0.5563958732900708 0.3897802442889012 0.2814121786202775 -0.2164706552296278 
-0.22238905167084497 -0.07223706254897486 0.24050839985513206 0.050491022266515265 
-0.23160571476028327 0.05480606877842589 -0.18730587618523367 0.006004460555363524 
0.1857809388599963 -0.1468457817975547 -0.17491284248779745 -0.14640729120430246 
-0.068501203836758 0.1536520884379007 -0.07913248278976412 0.10686620166518909 
-0.2799335347343408 -0.2683650700349687 -0.51447455641177 -0.7219089110354192 
-0.50628047554381 -0.28489780741538917 -0.7427332672172013 -0.35530215661909803 
-0.22870064993479097 -0.33963475270981996 0.20591571528826477 0.14268391293925248 
-0.2276004517626583 -0.3830590580130937 -0.009463101113945655 0.34064887256710963 
0.13569005236326165 -0.05340864030068407 0.034518909271078174 0.05223044749305275 
0.02752338247054219 -0.21189866553438402 -0.13532783853526234 -0.11037459258925526 
-0.2512673177456915 0.15180313766645284 -0.4870473727333228 0.0846236976504458 
-0.026216586021181217 0.32931850904341686 -0.18866698921448455 -0.437258002896558 
0.7077759614496788 0.09209699415097138 -0.03170864353821251 0.271175428502 
0.1394641949879356 -0.05832316560072568 0.46971479330458304 0.5071966308740116 
0.17607055908410948 0.3082730304694922 -0.09095424596821816 -0.48882096406303316 
0.2263993378243239 -0.22409211473588367 -0.1980115317801711 -0.5594303308223705 
-0.7341342355585523 -0.018900321569197086 -0.023898726793874763 -0.2220384295699177 
-0.019313752769296977 -0.06953734628129571 0.1503223758636786 0.20254588036025925 
-0.2963353571111025 0.018854585634274456 0.391407656716738 -0.02124580516591179 
0.24742086072740113 0.4784265353759252 -0.46090702999772826 -0.20663458355581962 
0.3548824055836492 0.2880642522429423 -0.02992527042073534 -0.15819336191302072 
-0.008961333126636021 0.1296747713814192 0.19547179456527283 0.19491846009759065 
-0.13810138957312731 0.15314034133881063 0.12737590681876526 0.1810997018122373 
0.2864754832044115 -0.027870999363359936 -0.02596451497036459 -0.27753119077318045 
-0.33013765297476555 0.241657454728567 -0.5023707070693604 -0.31168107264435646 
-0.2073928005722666 -0.40023483764920864 -0.3727972009689683 -0.6120937990820978 
-0.6705734420409202 -0.5113804578513087 -0.3516788471343126 -0.3215101989233382 
-0.33463336539135874 -0.43603983669403523 0.028240122128334925 -0.03714501675119381 
0.03960116256512154 0.019540345504202458 -0.48982345247386694 0.4173860277248383 
0.43636839191636556 0.07864786632038372 0.09682154126158142 0.5071707344663847 
0.07619215418128374 0.08653051288563973 0.24624226187788112 0.37316420862109156 
0.2287543519310931 -0.09620125413975965 -0.3034877327434985 -0.1604336194848857 
0.5500750874107849 0.3131081405186691 0.17102302910365066 0.15738987075996963 
0.7656258538818507 0.022303799681710562 0.3686586167735574 0.32273624174767107 
0.3699216892986162 -0.33060777729848895 0.04515387251293635 0.4495883201250514 
-0.11069992249134258 0.2534117742153507 -0.0814241319838102 -0.009017005629370994 
-0.2539228235640692 -0.8013213380569998 -1.0767464173452945 -1.2763787297258726 
-1.6054394151515052 -0.24608041267782288 -0.18891290055377497 0.13539093255169646 
0.06921895668163473 0.07539743271883748 0.2487892603655539 -0.28385543111043304 
0.4231498524842469 0.32294925567175703 0.29564653523211604 0.6791151965291279 
0.3820824189901701 0.30951353738842485 -0.5148348558969994 -0.32007830701986234 
0.4313042397893735 0.18065572575931543 0.011378341568670368 -0.02409796812556464 
-0.38318364711087877 -0.08542020118404203 -0.44465336959836177 -0.4203796249680329 
-0.1157404676908853 0.09820951391288951 0.09641707375579762 -0.3429258614537734 
-0.4878418382453897 -0.22452050228804676 -0.3044894662972674 -0.219905702416843 
-0.18921945378013946 0.23521273140442914 0.17303249471421395 0.5949973794793528 
-0.3331665914951582 -0.11423249909931776 0.22157360652334873 0.018423503646252615 
0.4906882600791315 0.6447246542607229 0.06434185132176336 -0.3398821705839001 
-0.2774689980797713 0.07404762928327274 0.2445898854427445 0.14281858354986968 
-0.02942267446186214 0.032062404812122 -0.1961592672262956 -0.1519470430391521 
-0.0025523380087416683 -0.6311003253954764 0.07890601143182202 -0.09607284652503614 
-0.18609692031526057 -0.0829005577323185 -0.28909312848468377 -0.3683934356805815 
-0.34322082423916755 0.15945003988947926 0.199850307273243 0.0366307497006581 
0.06067358483475056 -0.12681169531213599 0.16585695476319992 0.19960527848692783 
-0.25302084129602864 0.15305651589722835 -0.018608270960538482 0.20962715623649456 
0.22919727211358853 0.33284096849004524 0.23446353633511804 -0.0017095554945307293 
0.4073095317300969 0.28064826039336693 0.18475027606233926 0.19999280514695833 
0.21808777274173533 0.23437141076700385 0.15721357966378954 0.3151832872078614 
0.08273956866709169 -0.02840836214488952 -0.056354329682375984 0.27786730546157995 
0.25812086301522247 0.2248355800591273 0.005982239227614113 0.2126596758344685 
0.34331312934338304 0.08230077847133366 0.1726672412790213 0.002602922237239487 
0.1403586402979691 -0.17903609357169625 -0.24118616612880536 0.13070584633625681 
0.09668005515273428 0.1898268480096449 0.24993205139879182 0.008815883325325617 
-0.052914992440599114 0.2419858943319064 0.39507028367132696 0.20905996866129453 
-0.11485683261188666 0.018334581277575437 0.07405644311451506 0.06649948768426234 
0.24470514815080574 0.07032932792196694 -0.10666675047868711 -0.1624736215002831 
-0.4219700426923157 0.026927464799126152 -0.07640378472485508 -0.3691364845009362 
0.26328554498016044 0.2514881239937665 -0.35123260611031354 -0.16151347794471177 
0.06033764231715599 0.11211712617867677 0.3420129784015793 -0.14450242597102192 
-0.11269997990286118 0.11219377922868155 -0.03559826822901916 0.15655488011340032 
-0.11077844270697206 0.035391837190139254 0.02728825139801204 0.27111238749912847 
0.27693298163512936 0.18221978634012073 -0.08245845509278213 0.2299942439153712 
0.408179054168121 0.34711069379109716 0.3942163018648461 0.4386375178527292 
0.2702679668472969 -0.13527106546660325 0.3855557383144284 0.562495704042302 
0.39110479853142444 0.4037691210614424 0.1531244448030573 0.17858972840893142 
-0.13662131819419235 0.4411991865873239 0.004095126361374928 -0.20131357976308553 
0.4121795249520353 0.027450690888748155 -0.0609506172898584 -0.08665997069181262 
-0.1274517739797075 -0.7564703184255196 0.2332549207201129 0.2297131971135067 
-0.29141346734051915 0.3522677551552386 -0.15366640450090732 -0.38800626970276725 
0.3202434901951006 0.07090030757019325 -0.011019882089830823 0.18660761850585528 
-0.41769915431657284 0.19589851133146724 0.24177442907364255 0.09082016408973122 
0.245571923230587 0.4835875606677358 -0.07015611853610684 0.22816283583422547 
0.07248332357569019 -0.3756371305800746 0.2763544005996694 0.49916259151889897 
0.08236699114433434 0.7717461939872361 0.0897913322796798 -0.182994846572793 
0.4366649751732193 0.40671014077344625 0.37063617914332864 0.14167842967689212 
0.542794386711102 0.19005859119196 -0.26335850922206405 0.2587662633958789 
0.2027229951087795 0.047330733151112483 -0.06751107118150887 0.18591200945558584 
-0.15153534551969286 -0.41221135388413893 -0.20906100992638588 -0.6316991272743063 
0.46365805145622696 0.07551760039682347 -0.05830110059234051 0.36331676720606315 
-0.2586463281322674 -0.44190831452324675 -0.11922481967494777 0.10395406870033498 
0.3381838650025148 0.28869247890338595 -0.07961131105164049 -0.07513139691459529 
-0.01971427808229212 -0.11492684441467414 0.2759662922413669 0.5602633180476927 
-0.15554772810304296 0.5220169400093507 0.03687184793613413 -0.03175642710938707 
0.3119109504259923 0.15746620311241027 -0.12795371745304643 0.4784752056503053 
0.23355044905008418 0.08116891269351105 0.6208603186222598 0.4683330230331788 
0.43573373244894686 0.5264636428837848 0.20083942310946437 0.43634367286778275 
-0.2816811326108867 0.42207844329227984 0.28804256763939107 -0.051352900808089 
0.31539238683832693 0.06842347468938031 -0.4650614939027691 -0.4496093500620263 
-0.5044598117870531 -0.6090047154002771 0.32189558970911514 0.42146823517894066 
-0.44877438344508597 0.07683242592094872 -0.7638082969509054 -0.6103855609322459 
0.039660343824240336 -0.03199020720231337 -0.06015551080295816 0.4937343625068549 
-0.10828575283827115 0.17821212371867576 -0.12423364779542816 -0.04253831047330888 
0.6762696109784452 0.6989888203239132 0.2665643268651757 0.5916894103052592 
-0.16858010888177138 -0.20429148919602488 0.5773888500555491 0.36043810084989325 
0.32795524610299037 0.4999347833877064 0.09294450092619029 -0.1924881588431103 
-0.1453685200421431 -0.05629980483558687 0.2386792727651605 0.2909193131027105 
-0.06716133487054796 -0.0525919704519885 0.21824965844445698 -0.06607023917611447 
-0.029397741482591704 -0.18098414830490017 0.26554807906749217 0.4050168280060308 
-0.11938146879320227 0.132791253288976 0.2893473214980081 0.12934779558126397 
0.2184792028965376 0.15619855914582595 0.25820677734407277 0.38675485654713154 
0.07029640989936796 -0.008218415296034105 -0.2241476475008177 0.034449166456594855 
0.34152080058593925 0.5303841253040961 -0.07065295225605497 0.28768280898149534 
0.02655402978906199 -0.07253055624584887 0.07033365896341158 -0.054963938886372445 
-0.280930885883811 0.08675714823497117 -0.16622110452661237 0.05025572480692928 
-0.15849812990931636 0.1098205580772497 0.044237384611301056 0.2011452175483425 
-0.1510409719577174 0.2681441836183707 0.22267801886212535 -0.052648601393348315 
0.13273163006181016 0.20658890134795288 -0.22407252664877536 0.03439210797235079 
-0.4552420156045513 -0.002464728611851476 0.1491035122697851 -0.12628094386658165 
-0.15315499792208387 -0.301934583550541 -0.511802266819912 -0.48433668863517654 
-0.631305225532282 -0.2115188116806353 -0.4084697633935436 -0.1720767458299919 
-0.6314338639241186 -0.7366478299119911 -0.11360178391962666 0.06023293507720936 
0.17744082471407224 -0.356904142638031 -0.573738904823024 -0.8717028240868024 
-0.1491147979529778 -0.24565107418148732 0.156324677719273 0.2255253859650876 
-0.4273208158871226 -0.10083942017591829 0.01847237472218621 0.22872823756758343 
0.2633600016858335 0.002006787170808727 0.37443477827231364 0.27512455463642194 
0.03925930034766708 0.05152284403526621 -0.006299370618994136 0.2289660283180692 
0.08124157101506282 0.2564038710203994 0.4494325946334658 -0.010146513143748958 
0.05573056494139376 0.12522849912674494 0.17972017495937345 0.32756785775644115 
0.15149804727959787 -0.14724871060062886 -0.0464528526087063 -0.02332213098409364 
-0.12227705057553404 -0.13204038972612633 -0.19898825392317776 -0.21132735113021914 
-0.15841859860562818 -0.2647408402129475 -0.2706634338487615 -0.1545307569185329 
-0.2022535834294984 -0.6080719293690353 -0.17335048728626762 -0.13419380344490156 
-0.16219860880883374 -0.5015074639821424 -0.16849200372118384 -0.34834022234792644 
0.19741280454427917 0.053075591729299904 0.04837990749721561 -0.00683067563258068 
0.4184634625715797 0.45280084981733487 0.29102953065264997 0.5422900708150729 
0.3508792585493132 0.26628028702048734 0.33927753109555253 0.5505367027101434 
-0.0043930190585140414 0.10664944958691779 0.17422880937932064 0.1760746674220373 
0.2332344291079839 0.1578230513780991 0.19758832780195612 0.08520053230177087 
0.15646234531967063 0.1529365894690822 -0.027248177012234222 0.14092770800873672 
0.23037780126237556 -0.11093622195275397 0.039809226553709394 0.18035522795620365 
-0.11930634192864711 -0.11450179168396285 -0.36154933726165916 -0.4202900169929835 
-0.056329494867219304 -0.14744435667024242 -0.6038746496528106 -0.8222421200753838 
-0.5993862140277594 -0.22771667350916758 -0.17378397988211677 -0.4362352064511323 
-0.2363847267506892 7.862393084779951E-4 0.04988619164993655 0.08349728266265355 
-0.2864846561563846 0.038433538375163535 0.5061409465933294 0.3153806139843159 
0.4304623687462368 0.6035126501835804 -0.015333494619641461 -0.03781104380702641 
0.20462273763699154 0.560464384070773 -0.1962973834271032 0.18382755203022091 
-0.023371784604949163 0.3120226864206079 0.30054723153109286 0.44066852913607835 
0.36850435216295846 0.1491397285637693 0.0074094494395914754 0.15715874477389735 
0.28689871801439054 -0.28373667921582935 0.33829179705428025 0.006973782450476445 
-0.4709632576243484 -0.28580542864781866 -0.13330859593041955 -0.20964593852461724 
0.4910884128121963 -0.05760133561779193 -0.27494771567211 -0.22820451616930928 
-0.48219669210870286 -0.4070629872334594 -0.6370975659962215 -0.04497306944396668 
0.20180835420547918 0.35409901585446474 -0.12982639005170626 0.45853763253404106 
-0.0492140948696027 -0.0024216672663148506 0.66560594320117 0.6127865757629344 
0.23083939940184386 0.5310059290535875 0.11997495898839504 -0.3876115287579016 
0.06886520704468171 0.14605479046185307 -0.03658998724951952 0.039283491742895096 
0.20253645620421712 0.370986824929046 -0.3778893573737888 -0.12612521423032264 
0.18510255189482688 -0.28951177306331116 -0.36141682046990303 0.2949572182116364 
0.42923223159798907 0.2982574121951148 0.5404312805565279 -0.380024909810549 
-0.29889815366583417 -0.029000468265719354 -0.11247258797166691 0.6173003210956335 
-0.15273319886234146 -0.21892509020752451 -0.6676610286977279 -0.18173758039045465 
-0.5861406009665204 -0.8928622603365522 -0.5935156423609823 -0.5410569506368021 
-1.1497173465198285 -0.10571181748329786 -0.138228294328318 -0.1760666118146008 
0.04078866201148534 0.2117566622057415 -0.5790842686108326 -0.18860895750095158 
-0.029260586883407626 0.4916411360940877 -0.04452047215006749 0.09929623143282866 
0.22637622385084155 0.5161702568338272 -0.3050286484154849 0.2187114448976395 
0.30699726648502423 -0.5395775722223086 -0.526580161341908 0.29751275070539135 
-0.43722153819160336 -0.027302983572997517 -0.00569064387133313 0.049169227334833365 
0.20130926271468422 -0.0582046747363264 0.31997196811528034 -0.20472620026189306 
0.15900240872981924 -0.11162241305824594 0.25786402764815797 0.1155546292778998 
0.36624561311615067 0.3452580305822501 0.45670983457176406 1.0474887273306772 
0.15316663113588055 0.31183122377116496 0.7673372004919153 -0.059183491639043614 
0.12781907179745822 0.6264965629518061 -0.6424230367874598 0.2328052147766979 
0.7115347497413269 0.9718227132030594 0.3858902240648307 0.7408396572149839 
-0.12809999963865495 -0.2508800638325622 0.661537699233719 -0.23771490493544384 
-0.4511415515028101 -0.4669530975300009 0.11750056499606475 -0.5215901237683793 
-0.4951414573406317 -0.1551644632834633 0.18741891793133986 -0.5013033496814246 
0.06344778300421769 0.047558558788094014 0.005664004913487264 0.1510054595932357 
0.3815008359244497 0.13294737333521436 -0.03820300825161869 0.32319074829056926 
-0.17153435020578744 -0.029507027509524154 0.44643674402085404 0.03643711326885441 
-0.03483986124085188 0.3097636060843069 0.0012800379028636642 0.1229197273942159 
0.24577618826084158 0.17982303626323637 0.14633393702359457 0.4792913228248518 
-0.11788902400170233 0.30231007865241494 0.28391575785851497 0.46763682878307344 
0.015891073247166085 0.13764524130093875 -0.01847021651461615 0.4432386379458956 
0.12869594059891226 0.13563923625403068 -0.11456797207010941 0.32609066614381615 
-0.11175688788271475 0.30426742626778336 0.13375625856321013 -0.07639837192937664 
-0.14679031053494096 0.01054816694094139 0.1529765976293712 0.08175922151135039 
0.043895187686755585 0.32986196942378915 0.15255075366648843 -5.225109938848859E-4 
-0.3297722862129081 -0.23527471327204857 -0.06517082551137844 -0.048233681739381584 
0.17832189812739005 -0.2873622484939316 0.16123692274025447 0.09353431114700718 
-0.08845387602116846 -0.018224494092554243 -0.12544709795270215 -0.3246928756622331 
-0.18235576221560393 -0.18639017210298905 0.03727727348506704 -0.0397136945080166 
-0.3105800958183323 -0.18864270573219452 -0.06980434835949624 -0.40743796897071843 
-0.43329061981218814 -0.3177187525720424 -0.4426091712293867 -0.37745953793658726 
-0.19742079796080236 -0.31956209314598016 0.17374909894434493 -0.04244334113745351 
0.10568984993695175 -0.4614659064013284 0.08222205692506293 0.1555854828165166 
-0.024219513021767555 -0.014555158173475025 -0.13340957372750728 -0.22929900051860203 
0.13860754156995256 -0.1372296921596805 -0.22558549148924675 -0.08341649110891487 
0.32636691923974925 -0.08052096515915103 -0.15729581113723703 -0.06886276666223974 
-0.25449882821196546 -0.1838872774690105 0.3817507279025266 0.23353360394357675 
-0.2311053622402348 -0.42181129094828457 0.11764842008932375 -0.42884472215542113 
0.024953572989758626 -0.06542868473802184 -0.3380850922559465 0.18740606132710683 
-0.005550106214093904 0.302209672339711 0.2776185993099364 -0.0972301415213142 
-0.15992789128797216 -0.09341372254547986 -0.05824694363218515 0.2288377771094903 
-0.4526013227007278 0.028303375375230904 0.08147293129982135 0.3375801270359024 
0.04559472925817796 0.5619715051374025 -0.24242031381290371 -0.3758200142068825 
0.5166512045322582 0.0734315340671919 -0.4763722833692838 -0.4330606056754508 
0.15310060439157508 -0.7955166981033234 -0.03260801536924433 -0.026641581530286326 
-0.16192239941590858 -0.34003993183124553 0.4639719130344771 -0.041229433291412695 
0.07455068266789187 0.010972375601756776 -0.1689895855760401 0.021989933904501872 
0.08180584890792983 -0.31125529911051575 0.32153033502933526 0.2216787017228938 
-0.22939169877863752 0.38019719349497505 0.16771539480630968 0.07580534004823351 
0.3445257688220201 -0.04607753025249169 -0.1166211656463098 -0.12368450130257509 
0.24632569283586725 -0.13553193005190034 0.26324041465044845 0.42615191069374647 
0.42838517619894706 0.23614573818409396 0.5833783656560956 0.17452050181841336 
-0.4055557896959603 0.022657606725152924 -0.17480388243628736 -0.347206691249196 
0.08276481307449918 -0.07224500515758431 -0.19988849358878955 -0.15824598223860575 
0.3922328038109303 0.34615220801914 0.19259912431044401 0.5055243114515496 
-0.28289868638392207 0.12064506839422119 0.35506824297956396 0.5935322153537601 
0.03147854170039109 0.07922891455636014 0.23060739867911184 -0.0972367133756311 
-0.09795708617722139 0.13204272806772974 0.13599220988456115 0.15923333965863312 
-0.02557970095886324 -0.2586254679099535 -0.07021771170804168 -0.17014946220701016 
-0.1823561777511397 -0.04884215195910549 0.0609967872322357 -0.18597454254997842 
-0.291370346898556 -0.16178797263192254 -0.4448957492028352 -0.3233909569300393 
-0.13698973460522237 -0.2846332900466206 -0.3376504956992342 0.0905330622826696 
-0.2005014042300724 -0.1754001904493021 -0.24536028836693333 -0.47256436162603516 
-0.16223888880507625 0.08763373559488578 0.24256858949730342 -0.18344883182283597 
-0.3664855815289657 -0.18084060442171612 0.012916812915696824 0.08894900266723389 
0.26714876235520496 0.04062110190709801 0.04497467496532572 -0.06715139647504509 
0.01124429036616738 -0.1803880218243463 0.006077526785147689 0.056667028776938355 
-0.39805116300176463 -0.5186945591864386 -0.1388207442855322 -0.41683472569031094 
-0.23025626402707003 0.12268181766647729 -0.12195848312060677 -0.08135791006967444 
-0.2777278209727099 0.24009182123343967 -0.27654328464642125 0.2641186776836102 
0.17245452719376872 0.4209772502556775 0.3751096998940726 0.4104813921648416 
-0.14295220206635892 -0.1314590062831667 0.4235360761606753 -0.05415053898224835 
0.12484467925050491 0.5164012889900794 -0.4166788846638271 0.1393722271699897 
0.13022529925414367 0.11415616176867541 0.11822425495227273 0.24470937309965213 
-0.3396031551332657 -0.08985577617131796 0.2202346049729952 -0.5294243547059367 
-0.09990220650771485 -0.4958803130178539 -0.12920731062002433 -0.057083710640422836 
-0.39417898552941255 -0.46096699326156887 -0.34027125062635527 -1.0276403404981485 
-0.06252869810221419 0.15156873984495686 -0.5118922297750922 -0.4502728099424417 
0.28912968794700483 -0.3157044321604951 0.42172264340947896 0.24036908707297708 
-0.4160509293552117 -0.4439931623679117 0.4215021321820619 -0.040011397579130165 
0.3130684606334558 0.2673150638709827 -0.4439889968388771 -0.12066288626386734 
0.09423476938463718 0.23219283222245188 0.568548582550115 0.3572290112283297 
-0.020253509421108762 -0.02801113614007542 -0.1860569499534659 0.036330202109403166 
-0.917285186706782 0.21166283666899238 0.5653805540296405 0.8157768071979675 
0.04943811062168669 0.5551449988915788 -0.717518054164011 -0.48720427095993507 
0.7932325688706473 0.08276877342981076 -0.2347606168297436 0.07162785995875717 
-0.24883235301246118 -0.9048353622148265 -0.13414505824512873 -0.16002810563410924 
-0.3540437971449776 -0.7191413789904659 0.5719673477177931 0.1695157974131424 
-0.4879014923859181 -0.2925623816640529 0.1945233069560276 -0.24917928082428234 
0.5424684749031077 -0.3207828105628742 0.05627897964919184 -0.11749699327222303 
0.22099945008231564 -0.4816633717327562 0.3748198168486919 -0.19652850247273498 
-0.12785262059035787 0.024208103632938544 0.17513453139304336 0.34731075206826373 
-0.09484471169981075 -0.24342159601166752 0.05457427790082272 -0.5692317054322986 
-0.2645423629467133 -0.28503288405553895 -0.289121268186208 -0.3306501610021124 
0.07966115657277778 0.23519842848641923 0.32631907985305386 0.21903026936059625 
-0.3978658719028733 -0.5627365832459125 0.12689966327340027 0.0840678317314612 
-0.5468314959192782 -0.14486939923543027 -0.18911221880239534 -0.28603431000334667 
-0.23870932912174217 -0.3550978727287287 0.10752074420030157 -0.414224035820981 
0.4799329838384009 -0.26251858275049433 -0.13399345247433306 -0.3102981157409092 
0.6326844797543967 0.35682514027178114 0.6167183867579688 -0.007677780595576177 
0.0702449045450748 -0.08932338737431897 0.5967850690886031 -0.21691580288395368 
0.5396481647343218 0.30497765903248386 -0.6158243974151326 0.17451978260061504 
-0.21793113875257028 -0.11918464955061502 0.5869503342801511 -0.1785704310326248 
-0.15461684305743398 -0.21336696345251946 -0.7421503210355151 -0.2604770056208879 
-0.9814754613126091 -0.2794206906435611 0.3317122413493187 0.7496284258127056 
0.03318002770319219 0.5700999250555703 -0.4885400855260625 -0.5839108468522458 
0.4742334532444384 0.4893218475744386 0.04304815442466029 0.25336256218480735 
0.19315900483754425 -0.5244705159583745 -0.1745925422657364 -0.27647735536361784 
-0.21686623137440092 -0.5664843929810104 0.43053914713525687 0.3016889890818157 
-0.07299143531794731 -0.2525049857082446 0.36083599692799023 0.16530368325289813 
-0.11479626477320808 -0.14845428893463403 0.15866627570527583 -0.05923417752682577 
0.029000126461831335 0.09921352545165603 0.2335980242863527 0.2924533328093672 
0.07373332766497498 -0.006571558010515898 0.16379415493660496 0.4240275886604597 
0.404442178187392 0.17881380079715922 0.4321542388268682 0.23254524744457114 
0.11500205435735304 0.3613345158561591 -0.5932838819195152 0.08433011488388667 
0.467792273469722 0.553613765277371 0.2714882172548455 0.6515933452865721 
-0.5592631510180025 -0.2142318988669229 0.4990856894978028 0.1975309318566435 
-0.26631004013350096 -0.13751570724234055 -0.28428654706684864 -0.624541195731407 
-0.33191770832813494 -0.2028662196249368 0.05469766106993453 -0.06964242558347071 
0.14484250131008491 0.08729935567088805 0.023041518446908625 0.3352471081524161 
-0.055324930694248174 -0.006252967657986034 0.04986903035269444 0.16925307008554752 
-0.2436088943509215 0.20351932415890173 0.008902523217443203 -0.009883782344007792 
-0.060085166267703605 0.14639174576053646 0.11980825896466345 0.10279579407631469 
0.20124197027434146 -0.12286496456182597 0.07576746394165404 0.3360589981015322 
0.18370288677782914 0.46912711631626897 0.43701186890271293 -0.0318552695725554 
0.3391362030073969 0.03987362023314731 0.25196637905678076 0.353454860275923 
-0.11488009101921876 0.016702539241070034 0.16825713294249134 0.23772257948183909 
0.12821647808217188 0.1629544886767698 -0.07417257708958273 0.1563070639036594 
0.05843779436658022 0.09138346425217864 0.10033628767148947 0.1927600597243918 
0.2797525439839749 0.4297153104064081 -0.06261801807531651 0.03777701945132242 
0.03750077961189145 -0.08280792609128201 -0.07446947180503037 0.06342770794474685 
0.034782099142814715 -0.09757935208181362 -0.2261445893379043 -0.10945707813219988 
0.10136748987979669 -0.2416922109399293 -0.1432452675539268 -0.15602639721986525 
-0.4029358390168887 -0.017203645041048415 -0.2740481336102642 -0.34527239118845254 
-0.3917910940456738 -0.3211235049812843 -0.3122909941748579 -0.24482410983969197 
-0.3780285925663847 -0.12725776724181162 0.3034340140529688 -0.047674786250974356 
-0.5687014983577443 -0.6792134390010962 -0.264860062972686 -0.3267455470297738 
0.3590100157338306 0.2988926122681472 -0.7170073564401792 0.1880105344171003 
0.18099314715930104 -0.135856607187284 -0.02925305683605862 0.330372835718222 
0.3488508922826445 0.4697950720067694 -0.06011189689425481 0.12444757551975277 
-0.18261490275916645 -0.07618759406035269 0.17453215693552843 -0.1662006560340511 
-0.12387081097643898 -0.17828970108020664 0.01764746555656634 0.5042302128971142 
-0.2963044047978922 0.04343969245211131 0.2787385025310179 -0.12834341432504126 
-0.3982351763037099 0.5752478268720462 -0.06946398409585199 -0.17995231452626695 
0.5130966835379966 -0.16854806985427787 0.24344580886009248 0.23340479309751078 
-0.009374823432499936 0.5439906951231447 1.0931012394514519 0.4315795034669292 
0.21104139782861406 0.24988077415918575 0.02813845200584373 0.20022926843571703 
0.5932925727066611 -0.09607121244071289 -0.1400650473610585 0.39270792867402293 
-0.15054500247072003 -0.15430269068113223 -0.1386428365522625 -0.13798000633538712 
-0.27459350473468713 0.23793595030792977 -0.10228385459092514 -0.061922038159034666 
0.025567242436807695 0.02969588194386701 0.011926083431572329 0.547623323974142 
0.14410507664874786 0.26328000817672803 -0.17235678001264004 -0.09975336755568431 
0.3041893393275432 0.26483133090357086 0.2209846916483084 -0.029278354836942643 
-0.2468476787255303 -0.16710345239775898 0.11986895895028551 0.3859230719519336 
0.3436548416878969 0.23263310246551305 0.17872751663322223 0.14338040986594427 
-0.00784784309804648 0.3060684810448588 0.4647626185460436 0.24542176506844593 
0.2889675863379934 0.11789695216779347 0.1040905560640298 0.3439306921861203 
0.10949564004505713 0.3673058935053086 -0.2388774140716064 -0.10297634522723152 
0.33980578367272257 0.19981756989977523 0.12697089909839882 -0.2549228896828168 
0.06114386181041424 -0.032441694672684145 0.02931188778997129 0.07607271392353693 
-0.03878789051211623 -0.14538354876651394 0.20936661513204521 0.2608842596840205 
0.13552578238429885 -0.00807330023595595 0.2311266077062647 -0.009264540685456535 
-0.2586194186221062 -0.24023961952748504 -0.07087361505712138 0.2535438621752269 
-0.6776330209360364 0.08104568575259476 0.010094902454040022 0.035001074057569616 
-0.10036019450309512 0.01792111041542932 -0.26884302512695224 -0.4274291741576188 
-0.005256919457283732 0.17432454389131508 0.1560759764914128 0.1893444233560217 
-0.2594565622859959 0.02588415342223712 0.13970122299158402 0.9073969332601654 
0.59458161279713 -0.10566843469789593 0.2500293940907553 0.05186345259282843 
0.2068765718470796 0.5367369108378048 -0.25937939951603944 0.12865871256624678 
0.1626627112222532 -0.1993166998046676 -0.48457045754916955 -0.31269882723684794 
-0.18324881686214584 -0.45265358796966276 0.2305269668018128 0.0514224607819572 
-0.35557859234012057 -0.30337713081402773 0.04981338641028743 0.048158050615690486 
-0.06539967602892555 -0.2542224834344069 -0.1425028954969804 0.12406910551869758 
0.5032669422941719 0.09680533199352015 -0.038034137661628 -0.10877710085618515 
-0.16532467427029357 -0.17146180664655056 -0.020289328198489883 0.44858550956685533 
-0.06320563501633365 -0.08617950721682582 0.27786442970334974 0.18022753521532076 
0.3246731641921552 0.3709002648823607 0.3709811341497081 0.11650637367400486 
-0.10776307584400818 0.13736390215732017 0.1570643843413313 0.4382525278072134 
0.21840647949718964 0.5957077338760725 -0.04234267543812815 0.26463994483295206 
-0.39736250172586446 0.3400226426718111 0.21589273216740215 0.2585514499956803 
-0.4847539271997549 -0.08741462374943544 -0.17686059564452078 0.14644122704214294 
-0.15003416193180685 0.005913769609547401 -0.04250063219839821 0.14545474182891235 
0.543403195338125 0.39614553707010647 0.28084919601281305 -0.04404534298712762 
0.6295295728585644 0.23538788943200514 0.5228082926189422 0.3966374577916574 
-0.3785994957588364 0.22440616441784764 0.6019449003188196 -0.2389924989005376 
0.033909571225650165 0.10433937326584142 -0.2515338494423489 -0.18287363094355272 
-0.34505390721562995 -0.742617647116966 0.33598577356241205 0.07497126020118622 
-0.4767262668170154 -0.023352420123431916 -0.2446704281337531 -0.5359780977318318 
-0.14114197833864606 -0.04647305520023533 0.09895215647944292 0.381090934471518 
-0.19996033389502274 -0.07122153088401957 -0.08603173218534467 0.18839938249626573 
0.552518397098299 0.7156977011256457 0.13992777820281754 0.477656234789303 
-0.09807882236198505 -0.4521907809853477 0.08039330918912359 0.23872840681829824 
0.06729276664370551 0.22232136312472345 0.5155820424243545 0.20034498103015544 
0.023748376318167518 -0.33318278784749705 -0.2844367889062288 -0.3602097619884962 
-0.3204615764654924 -0.2245572674021601 0.10072725956275434 -0.2120442628049642 
0.13928679876552597 -0.2919544831444975 0.007532415322728521 0.0927957218751464 
-0.15034340003290186 -0.04257459546528004 -0.2108977432721342 0.5278009788244189 
-0.0240534897832341 0.01416998424537425 0.019905296762221605 -0.5995676741379042 
-0.20371041358707342 -0.17669350476532228 -0.4932114969245877 -0.022869848278439225 
0.1502731877558876 -0.3575820842002359 0.036479804503142116 -0.026019726759019087 
-0.06787113913765669 -0.08015281871366178 0.10271810972176637 -0.4742560864841485 
0.025748660211619225 -0.07927116484125854 0.11934283474040375 0.034414804407587554 
-0.00795421267951088 -0.33443570814630874 -0.4351744636947356 -0.4872861666244337 
0.09828550323570044 0.08756913932926855 -0.008343424334288195 0.0045309165658981845 
0.16002048675347225 0.04744106411379167 0.19403265133793016 0.26479501836782177 
0.08747227450680312 0.07948980187518846 -0.1610550768754656 0.3061730162870969 
0.027812822768156727 0.0223697555666129 0.5495031506170807 -0.07496263073154076 
0.1944950140386403 0.014453244610275626 0.35000829864384114 0.38148746749889084 
0.38209079520274203 0.3345856439373315 0.16112878968483793 0.06443579960867321 
0.612950932578919 0.25840970355548815 0.47256803953598914 0.2306535562989368 
0.06846412682933922 0.015529177091908477 0.09008182138812548 0.31142679631049874 
-0.020345124641993187 -0.24829932417636433 0.020179333946790858 -0.07792305118565407 
0.28027462513845375 0.17977401730478193 -0.017824641837929815 -0.3263163363722402 
-0.1409913659500808 0.41989533449600613 0.23318539839979516 -0.16867153058605563 
-0.08427107055242901 0.16449288118947733 0.8477877772282205 0.46872041537813636 
0.16656003678057296 0.07407115067919888 0.2002226734241306 0.2261603530273527 
0.5749777869773391 -0.02842385343270183 0.3681108293284594 0.24167527047923454 
-0.514188450418327 -0.3195224324477791 -0.33674063013075906 -0.3878056046736659 
0.6177979265989387 0.2416120841985843 -0.054384502287296604 -0.38829778888012495 
-0.8506221065382049 -0.49858483608869747 -0.4752020680389298 -0.0981381993525909 
0.2728392610086668 0.5333821335835709 -0.03437086359758584 0.31264252985350227 
-0.43645291631136124 -0.0889795967026745 0.7671871985704147 0.5098726351988029 
-0.09430837238922331 0.538372907265816 0.10504342451665116 -0.3210055066854615 
0.028861434512287176 0.24989830343218622 -0.07090502164202528 0.26325102200048184 
0.49196545902328426 0.22386605871340812 -0.12641340517276237 -0.06039411949230997 
0.13886610940210264 -0.08025449759387629 -0.14103106537845844 -0.04884269386815963 
0.024804333777369722 -0.058393198830626304 0.1495068291108686 0.01698902462785224 
-0.02602568828423025 -0.2851015866030065 -0.50893820955523 0.08985685727868938 
-0.3035286721449976 -0.08795991770624818 -0.40690953527030804 -0.02399362558902616 
-0.48658344038967516 -0.583888277072789 -0.2706050837927332 -0.37062409711787614 
-0.6198847007440172 -0.23200181758899124 -0.17721554407263534 -0.20755401139506255 
-0.005295216834651875 0.06939862009416202 -0.060451549788510604 0.1032401484595859 
-0.31236503972607904 0.30313337228456655 0.03625660981848718 -0.03780291235117937 
-0.02041692202667143 -0.055251853282112094 -0.2327881618618056 0.20195477905016232 
0.1783563115980645 -0.06526676197711576 -0.09868216683597036 -0.07363678128841938 
0.3096504350740879 0.2899314881134397 0.14403297779780203 0.23742355359177025 
-0.042459669849122805 0.06835141251845205 0.10702899651956317 0.22596465983060593 
0.18095638754857243 0.06822658688385108 -0.1263354938122836 -0.03738008049275199 
0.14680511712257474 0.10709306188662317 -0.43594038475961483 -0.24206651201400006 
-0.14791867829655958 -0.38175633904648565 -0.5952336569163985 -0.24905116490867707 
-0.41280472858993483 -0.5749373922325397 -0.2236531431533721 -0.08454941311594097 
-0.6164822949029934 -0.3181069410541911 -0.05336784654506992 -0.07708697923681955 
0.09387186528720058 0.21053553767877645 -0.09063467405975961 -0.14548678977847035 
0.12661639077946962 0.23720411763001994 0.2773308347393982 0.5587824843788921 
-0.02346854762655475 0.12769775777698042 0.2431585525486526 0.11851262331405617 
0.08530659981443034 -0.1643887534719488 0.387547330495448 0.054787026963489346 
-0.5381338445676478 -0.21769858994756344 0.02260994102099802 0.40973336422687867 
-0.9572953164886739 -0.220899829440093 -0.12439911973284129 -0.07688061225313801 
-0.373681460764112 0.06915533263519456 -0.6497985785086807 -0.5087218144796339 
-0.10318039461759036 0.05043620429345464 0.2547511025514227 0.41284688149989685 
-0.4159705278159312 0.49779679659715054 0.8427143936884859 1.1939410054581485 
1.184293913759705 -0.1318941329508997 0.4041957076372459 -0.07701452117201066 
-0.011693592512101328 0.5095115987737016 -0.023108780696091815 -0.08359403851771303 
-0.2696094814780367 -0.36940565633332567 -0.33286960676586314 -0.37199887127246783 
-0.45198696005028227 -0.6355722435648643 0.5693356896337908 0.32921338344873546 
-0.5446433134179279 -0.09890548068084673 0.047036297506264306 0.23226340711391033 
-0.7006817053929831 -0.768577409541002 -1.1408819998119812 -2.6819183463552276 
-1.938753560619539 0.1798900934572747 -1.5989225332541956 1.1083010910364401 
0.7332278702102611 -0.5738675830798681 -0.02169672624497362 0.4758094189055159 
0.3262929059604222 0.10550057586063494 0.4602714026026902 0.5211081667187852 
0.3282649514213161 -0.36768245373709557 -0.8716717826110193 0.1809549733456952 
-1.445281637279447 -1.0542004545148527 -0.7573329964570867 -0.5898859267777173 
1.0603948456939982 0.984216571222239 0.14791169848162736 0.0018179716624822516 
-0.48942118480397834 -0.16791583767513074 -1.289297213350068 0.25580397881775835 
0.5254426780136617 0.26836063998945314 -0.5640713698434676 -1.2925290656317745 
-1.1516909923188094 -0.4291097308071454 -0.010228642847577615 -0.6286222232024908 
-0.13211226899323877 -0.40777394163372366 0.36731823736452585 -1.321591117013138 
0.3693990034505979 -0.3440477901719735 0.6172618697567795 -0.650991374857846 
-0.22636637460909492 0.14023609022169314 -0.4721109517559263 0.9716378874529461 
0.22116934650138914 1.3991448668278255 -1.4337835183542285 0.06114468418191236 
0.13393280039299701 0.6239163816060429 0.6750482646084985 0.5848848179723728 
0.10211183151356529 -0.9128047260279728 0.5910242584838326 0.8043536234283511 
0.19274672159075115 -0.4508150610095112 -0.5808861050029553 -0.2809875899485468 
-0.28353073856690886 -1.1825863918797037 0.9481919388020614 -0.4925786219253854 
-1.104985406132549 -0.43571873415285195 -0.7899044770964635 -0.1402054483551846 
-0.11683246351068781 0.2898568335929695 -0.5036760071404942 -0.9381324396289786 
0.35345729908270396 -1.4949223058126386 0.11522796444058225 0.24910662366975275 
-0.9280291360164183 0.6007719637453648 0.7173956366107271 -0.3369359356554617 
0.17857030192465911 -2.0461274863943304 1.053170346087598 0.8320175568415547 
1.0772347845554309 -0.5411644989771204 -0.22756606791245823 0.03330943552976159 
0.6810992277832079 -1.071978813526195 -0.6756098277524814 2.2191260454999986 
-0.420393788271055 0.043478387459019045 0.7774532294855164 -0.18280968128823646 
-0.16610769653093385 0.9499182279348986 -0.5907006215926315 0.8197240870789191 
0.3687611037925402 -0.6514444511165516 -0.018708478088362655 0.886249481575451 
1.8709752326300746 0.6178780650148291 -0.5039613192716538 -0.3423814794792409 
0.175921213020236 -1.0479031498984432 2.103605964334533 -0.2771755561136261 
-0.6179521656659261 0.7100807359604253 -1.0960148029869785 -1.0767596061427653 
-0.3299612518425429 0.7793799982697482 0.38569926535830457 -0.8294942662366454 
1.2276348112302269 1.3752082153538303 -1.0456195720574943 -1.0300679641622128 
-0.5567002167980759 1.165782589719303 1.8980137537178825 0.6918696042425271 
-0.866633469465832 1.6338305425904116 0.7280828950552292 -0.8336498870791318 
1.7526673040674443 0.23395641642655396 1.3286092852836202 1.3124758398871843 
0.39220685680890854 -0.7993411985716885 -0.21427872613409077 -0.5408397863040485 
-0.4462956221918746 0.12083884330677347 -0.3650920997503899 1.6572404073702622 
0.2974222884710451 0.6232445620228432 0.4735805118596236 2.8581015565827053 
0.2351771390746334 -0.9069087878077913 1.8123337661439745 0.9264698627965064 
-1.1416268448533027 1.164556969943134 0.8771134844773718 1.0015926966275472 
1.6064726923043335 1.434264274547295 -0.049414066298836795 -1.2266840447511438 
1.1921319862109323 -0.9547504291812471 -0.8275324188327594 0.23979349992589366 
-0.11339929163842528 0.13713023948418385 1.4845959475275814 -1.4362642265970857 
1.0693087182828391 1.583102970336618 0.5637477808080604 -0.4349305406129626 
-0.860740990686927 -1.1401632784831663 -0.7261044295556051 0.9342713152666011 
0.536384737916614 -2.387962107698443 0.7924780176375779 -1.9278897492407134 
-0.04724447965065194 -0.560766788974997 0.16349240442943458 -1.0903122014407478 
0.042348788459423185 0.6194701782698937 -0.2637928434874703 -1.3692195060929535 
-0.3536773276712552 -0.7296310933773931 0.6773943787904134 -0.4966862852707199 
1.0356536913755654 -1.3593847327126733 -0.9384690183315941 -0.2610176370279124 
0.25344379613012036 -0.48291370456451743 0.504636369898478 0.15892895432388449 
-0.4591233128720191 1.2071816808262144 0.46303097256254777 -0.3788060587956831 
0.14574958297611304 0.5757936327467587 -0.14431995011560944 -0.5951238029233364 
-1.4332667184532595 -0.4999743619681691 -1.1380071993667629 -1.24704163345974 
-0.14317644304682278 -0.26526443946716444 -0.8308727690250991 -0.46885827532939 
-1.0375132967872103 -1.003865241781006 0.6202399874275288 -1.594918216365066 
-1.1072617413018926 -0.33206466664975465 -0.6602340604793117 -1.3869862227139045 
-0.894379500988564 -1.1126714748226112 -0.4474141942996745 0.26503838695194143 
0.061008489136825654 0.602914412008688 0.8252145825445939 1.0709400977259849 
-0.025721591634037314 -0.7081199896378103 -0.6479322372447021 -1.1214855755243989 
0.7280072266009171 -1.090112779447328 0.18132217654186034 0.2838431093925938 
-0.38615876138349897 0.5329255916645966 -0.918466255161258 -0.6693111486201363 
-0.24461897061035462 1.4705474488533172 -0.25189707491677266 0.7639208982248925 
0.7985485471974639 0.009988203806618617 -1.1500098152010343 0.7598395637164521 
-0.29693864432820544 0.9098847437336351 0.3962863157309913 1.0988921148902993 
-0.5734320540238314 -0.05852996745776813 0.9428730616146364 -0.6587452905560517 
-1.1083897516578238 1.4451388453474148 -0.5175034503919038 0.09372743549568299 
0.2782267992326138 0.3967760691314846 0.6894945125306221 0.05782646662588438 
-1.5512888568293859 0.1648069298042321 0.7497321085595637 -0.4475779367253223 
-0.7480132059574625 -0.01342577613817939 -0.0028678164048415397 0.34029387292582813 
-2.0577786865561287 0.4822891349326821 0.23793554849128595 -0.38682672616998337 
-1.8829130464466686 0.3853614373015655 -0.21426381784438917 0.9095684041335579 
-0.26248032650985204 -1.7852026293306067 -2.529078853551992 0.4641662513727585 
0.7019954947826677 -0.1283100277738124 -1.1480498005004462 -2.6835668082548945 
-0.048266793857924595 -0.2927877183957881 0.9960424178749576 -0.20861992640063293 
0.6264858401343281 1.1908072500430347 0.8612746724351675 -0.002220723249346451 
0.19528980211458669 -0.20009926176602733 0.40160173486636014 -0.009915387899170637 
-0.09486128858407415 -0.9284983919632817 -1.2721295758151934 0.7115930090145202 
-0.11878239972394244 1.9223529624586175 0.801704504362854 0.7926657525984859 
-0.21725060030858945 -0.6303166870271789 0.833229600443257 -1.3201254468915027 
-0.3558259143083674 -0.35339510829767606 0.718118586649728 0.9701470689983102 
0.6226950177305264 0.8503699501264367 -0.9102682835362644 1.5591025793570492 
0.7028315086497648 0.23525896191588422 -0.4246617025788364 -0.43801521062698884 
-2.4723527638745586 0.17196386973885905 -0.12325635083935194 -1.0227573366584064 
0.3968463686038639 0.33597170558031825 -1.6543231612591613 -1.8380891384672566 
-1.2003178983931924 -1.4817745967869667 -1.2589058050651876 0.33216618882135795 
1.243411630951968 0.19587460278989127 -0.5008349424466784 0.1503963015142323 
-1.346261344210575 0.842804977544685 -0.8854723285412383 -0.422899135189055 
-0.2751744612943986 0.23367168482329984 0.6130513778923298 0.9285842816443005 
0.19095166051294166 0.74914796541374 0.19330695601751915 1.6570689896557762 
0.37425679079894625 0.8147639308398311 0.2926782089932084 0.8107272816205032 
-0.816227939721897 -0.43700269612263576 0.2772130132390439 -0.31605395386873447 
-1.2175476752233179 -0.6463965349917831 0.3522181725970184 -0.20746431383930428 
-0.27959162675070115 0.092144508435161 0.5740125778996055 -0.055168791765706784 
0.5519653705914309 0.9963441505107047 0.11670660465012583 0.7702449925947119 
0.1898264172592026 -0.5326855607514986 -1.0907658832868639 0.36039496096049745 
-0.35013387159802156 0.24122150679306897 1.2162139113944581 -0.5744325479776422 
-0.3988727771047481 -0.14333070710424176 -0.10606507674619206 -0.0808524452986816 
1.0325141590364204 1.0601994853776306 -0.5217303926366399 0.5256873991383804 
0.5978523270844931 0.47685032384050086 0.5279055508041496 0.3492291910088898 
-0.8670639439972585 -0.2679236217912709 -0.3700626606881349 -0.37762998479306603 
0.22484043158054356 -0.4856252632994131 -0.7038553823583934 0.05063015177416945 
-1.00587093469617 -1.456665629315798 1.2251501129168754 -0.09118727641214344 
-0.6214258499625587 -0.8921638908599704 -1.0075080561695684 -1.6384784696172543 
0.07656838740226833 -0.42970604317391126 -0.7106710386316705 -0.7075880965618091 
-1.520918424867511 -0.7688289760047297 0.5248076405081661 -0.34036271152519376 
-0.11761709981565742 -0.08926099091132925 0.2039215933294819 -0.26992818082797576 
0.883097305495999 -0.7372042040847924 0.13496339328824777 -1.2737190748351017 
0.11821426090110246 -0.18957837844884867 -0.26066057376633806 0.775133312355961 
0.15196211203420268 0.30697320941876494 -0.06212540016690675 -1.3716913689697547 
0.218972688935659 0.08313213092925885 -1.8160110964206775 -0.39501129717332734 
-0.6897929444638643 0.6696081300793195 